£ -0.5144 0.68382 0.65442 -0.18825 -0.10498 -0.83316 -0.224 -0.69328 -0.090753 0.30342 -0.18155 1.6195 -0.59964 -0.18016 0.48289 0.17302 -0.50926 1.2753 0.94416 -1.2569 -0.18061 0.23033 -0.46325 0.48705 0.35017 -0.03942 -0.4172 0.062907 0.53467 0.46577 -0.39696 0.11692 0.86977 0.03822 0.20027 -0.12173 -0.90501 -0.28058 0.80818 0.23053 0.29848 -0.18701 0.036646 0.41468 -0.57959 0.072968 0.017069 -0.05676 -0.008562 0.65765 0.16374 -0.81444 -0.1885 0.33086 0.82532 -0.94404 -0.20385 -0.13296 0.13318 0.32474 0.003047 -0.44646 -0.58769 -0.54471 0.45663 -0.43312 0.33913 0.23502 -0.98308 0.33812 0.22661 0.3344 0.19703 -0.14853 0.63634 -0.36646 0.57262 -0.62339 -0.33543 -0.12552 -0.30361 0.26671 0.16201 -0.068294 -0.18227 -0.39513 0.35891 0.33866 1.0854 -0.91238 0.13483 0.20426 0.47079 -0.11352 -0.81938 -0.54133 -0.27352 0.29355 0.14225 -0.008689 -0.54529 -0.056833 -0.30143 -0.18747 -0.70496 1.2576 -0.30343 0.5464 -0.53546 0.060212 0.15543 -1.0713 0.27949 0.3885 -0.23315 0.13345 0.13318 0.16988 0.43669 0.035026 0.42069 0.22693 -0.46403 -0.6475 0.056182 -0.092453 -0.2872 0.007151 -0.18731 -0.096128 0.6019 -0.074549 0.44373 0.030987 0.60066 0.083621 0.16566 0.27446 0.20962 -0.42221 -0.25351 0.31433 0.42113 -0.35423 0.10862 -0.66776 0.19183 0.11238 0.76103 -0.26524 -0.15753 -0.25922 -0.33372 0.60868 0.073075 -0.15685 0.012312 0.64597 0.2924 -0.26128 -0.28217 0.12418 0.14922 -0.33157 -0.19574 0.075651 0.56791 -0.68247 0.42838 0.39079 -0.59852 0.01074 -0.66372 -0.62236 -0.35353 0.20366 0.47982 0.009137 0.81224 0.12063 0.048896 0.32852 0.17395 0.27147 -0.54468 -0.66454 -0.003845 -0.22566 0.3242 0.94417 -0.32539 0.33312 -0.30107 0.56645 0.10288 -1.107 -0.14806 -0.58829 0.41414 0.26238 1.2682 -0.28789 0.071011 -0.35522 0.046218 0.43296 0.16297 -0.29741 -0.73055 0.11902 0.46698 0.32566 -0.592 -0.47372 1.5507 0.40654 0.16132 0.032662 -0.28305 1.2465 -0.11464 -0.2815 -0.19836 -0.64938 -0.3922 -0.16132 -0.39452 0.038845 -0.031041 -0.015351 0.075802 0.033909 -0.74654 -0.13251 1.0149 0.058538 -0.47783 0.4851 -0.037549 0.13906 -0.51435 0.25475 0.10995 -0.007562 1.1539 0.065786 0.12519 -0.19963 -0.61104 0.022605 0.15713 -0.36101 0.080861 -0.018991 -0.16742 1.2649 -0.081324 -0.44566 -0.60891 0.17648 -0.31912 1.3925 0.002589 0.37043 0.59256 -0.81911 -0.16259 -0.06794 0.004239 -1.2628 0.42751 -0.46208 -0.064978 0.71128 -0.67916 0.11341 0.36664 0.14787 0.12243 0.49102 0.53056 0.26666 -0.40883 0.3677 0.14557 -0.39538 0.35211 -0.3713 -0.4011 0.40214 -0.8662 0.28323 0.23306 -0.33681 -0.11311 0.50849 0.46017 0.12493 0.37105 -0.4335
© 0.159886 -0.617507 -0.032783 0.1499 -0.26142 -0.240116 0.228819 0.273956 0.039147 -1.033119 0.122954 0.112388 -0.053518 0.178273 0.117987 0.044128 -0.046174 -0.734239 0.328123 0.239116 0.147577 0.095249 0.070825 -0.112456 -0.230121 -0.129478 0.155159 -0.019205 -0.20569 0.145477 0.12103 -0.168021 -0.079601 -0.068946 -0.151591 0.197391 0.155969 0.123965 0.264634 0.227898 -0.001155 -0.344484 0.147446 -0.065986 -0.155233 0.014741 0.422338 -0.222027 -0.235803 0.076709 0.180221 -0.1211 0.546675 -0.085472 0.146672 -0.146497 0.002294 -0.065288 0.045863 0.100886 -0.31061 0.074084 0.059626 -0.361033 -0.109904 0.331097 0.047739 0.16625 -0.017863 -0.306397 -0.061599 -0.394605 0.104754 0.032203 -0.170532 0.063868 -0.198576 0.185481 0.01313 -0.186539 -0.233834 0.176809 0.047436 0.655048 -0.195528 0.022301 0.322724 -0.139071 -0.331446 -0.07283 0.258102 0.040514 -0.127728 0.00542 -0.012604 0.356714 -0.272484 -0.152533 0.078181 -0.030043 -0.101773 0.206025 0.085155 -0.205608 0.176726 -0.295917 0.108516 -0.107228 -0.20114 -0.1212 -0.047691 -0.232714 0.264549 -0.164506 -0.072273 0.102629 -0.132627 0.114481 0.147674 0.11369 -0.261839 -0.015417 -0.090448 0.054984 -0.276324 0.040352 0.331779 -0.229612 0.26394 0.459234 -0.51756 -0.293078 -0.10378 0.128552 0.134986 -0.200292 0.03668 0.064418 -0.215921 0.048067 0.596597 -0.174362 -0.240699 0.062505 -0.431416 0.237832 -0.35123 -0.143855 -0.362589 0.181881 0.204934 -0.023344 -0.170285 0.072691 -0.513465 0.134568 -0.021982 -0.07216 0.259481 0.179527 0.198488 0.025078 -0.026129 0.295857 0.418685 0.247125 0.034852 -0.09139 -0.130573 -0.20118 -0.000127 0.022228 0.17769 0.087116 0.101463 -0.178009 0.053661 -0.270092 -0.459108 0.082233 0.139794 0.113601 0.352939 0.061662 0.364931 0.323067 0.251307 -0.362361 0.047321 -0.300403 0.278359 0.12884 0.37196 0.122956 0.395792 0.070556 0.316142 0.377404 0.428765 0.020242 -0.07707 0.285922 -0.009871 0.046318 -0.338818 0.223691 0.205973 -0.014803 -0.051452 0.212362 0.125868 0.093992 0.174135 0.280022 -0.126435 0.036716 0.170048 0.061124 0.320601 0.113778 0.045625 -0.152103 0.058512 -0.060154 -0.36346 -0.482502 -0.298629 -0.446207 0.011665 -0.164529 0.065409 -0.314792 -0.30275 -0.231922 0.233674 -0.07516 0.034919 0.089352 0.01692 -0.332245 0.32933 -0.212584 0.107523 0.086002 -0.053097 0.075342 0.202083 0.255216 0.090927 -0.200086 -0.227372 0.23525 -0.019355 0.087539 -0.016592 -0.418634 -0.086639 0.385412 0.022612 -0.211445 -0.14002 0.17959 0.211593 -0.322344 -0.054282 0.129008 -0.451353 0.024534 -0.171582 0.086918 -0.462641 -0.218644 0.181743 0.111178 0.142818 0.10954 0.165998 0.024181 -0.17277 -0.126586 -0.389548 -0.166041 -0.676752 -0.131305 -0.01034 0.038314 -0.138013 0.135319 0.108854 0.049164 0.3557 -0.180675 -0.35134 -0.027396 -0.027958 -0.209629 -0.09024 -0.01275 0.278478 -0.249446
§ 0.28233 0.26692 0.10659 -0.21989 -0.31849 0.24899 0.19866 -0.37094 0.50946 0.63557 -0.49503 0.89085 0.39493 0.15948 -0.64236 -0.026194 -0.015211 1.7128 -0.36175 0.12661 0.76604 -0.11123 -0.25027 -0.37541 0.093462 -0.007875 0.14003 -0.079653 0.073471 0.22328 -0.6298 -0.6017 0.36547 0.21858 0.33534 -0.54562 0.31319 0.12608 -0.24269 0.039716 -0.44452 -0.65936 0.41965 0.31598 -0.48437 0.04806 -0.26861 0.61422 -0.32035 0.44747 0.064372 0.14451 -0.33009 0.17671 -0.57214 0.16717 0.83234 0.11997 0.18108 0.097051 0.1284 -0.25939 -0.43857 0.41104 -0.75026 0.15501 0.24173 0.39163 -0.62378 -0.28998 -0.089914 -0.20011 -0.26499 -0.40227 0.37087 -0.31774 -0.05455 0.32817 0.085628 0.18157 0.27936 0.11466 -0.43785 0.38771 -0.000625 0.58493 0.94706 -1.2525 -0.23009 0.49746 -0.20381 -0.2229 0.47785 -0.38189 0.33564 -0.16308 -0.39464 0.12105 -0.08473 -0.31208 0.66235 0.40878 0.10211 -0.27364 -0.29913 0.23893 -0.046407 -0.037654 -0.56553 0.045378 0.37756 0.659 -0.22613 -0.58436 -0.14992 0.3858 0.28144 -0.45239 0.35258 -0.59533 0.016814 0.27589 -0.18009 -0.13116 -1.111 0.49703 0.55258 0.59861 -0.13659 0.21601 0.32773 -0.10149 0.24629 -0.29748 0.19774 0.34063 0.081999 -0.9027 -0.22624 0.22138 1.7005 -0.29675 0.69824 -0.12448 0.18674 0.034097 0.071709 -0.29163 0.42435 -0.59484 0.18096 -0.099092 -0.62642 0.29462 0.18355 -0.11404 -0.65018 -0.45836 0.9012 0.40263 -0.14963 -0.12648 0.2149 -0.012772 -0.75922 0.43359 0.002249 -0.27988 -0.33549 0.85508 -0.10773 -0.15135 0.4907 0.10343 0.22598 -0.33953 -0.10384 0.13796 -0.18157 0.09245 -0.14594 -0.11031 -0.02546 0.21601 -0.048697 0.79869 0.032056 -0.16151 0.77411 0.16158 0.15952 -0.045466 -0.43029 -0.20716 0.52656 0.04895 0.11214 -0.65372 -0.37842 0.24603 0.40229 0.10365 -0.003683 0.27019 0.1631 -0.22491 0.78833 0.33426 -0.34321 -0.075957 0.40735 0.68707 0.11152 0.085625 -0.4364 1.1832 -0.12751 0.65995 -0.33804 0.56583 0.11492 -0.49281 -0.13619 0.17037 0.13003 -0.569 -0.096303 -0.046594 -0.21457 0.012667 -0.65566 0.1267 -0.93719 -0.49317 -0.33223 0.004957 0.6181 0.3314 0.1348 -0.218 0.17818 0.03815 1.0765 0.36615 0.13008 0.32819 0.41507 0.29354 -0.76919 0.075546 0.63766 0.41268 -0.46403 0.090179 -0.6806 1.328 -0.20783 0.3302 0.39608 0.32249 -0.098827 0.12415 0.1856 0.43726 -0.017791 0.013324 0.033761 -0.75287 0.49232 -1.0282 -0.075999 0.20606 -0.84777 0.31417 -0.18765 -0.53426 -0.57552 0.22926 0.2171 0.36287 0.53834 -0.20588 0.35827 -1.0589 -0.13103 -0.03039 0.006251 0.32244 0.32633 -0.12516 -0.25452 -0.24373 -0.27494 -0.040046 -0.17547 -0.30048 0.50603 0.025682 0.75195 -0.64322
° -0.10027 0.55987 0.69887 0.11796 0.15127 -0.4212 -0.087759 0.66238 0.06306 -0.42295 0.016269 0.38554 -0.42147 -0.041049 -0.38045 -0.16148 -0.11334 3.1248 -0.25557 0.28798 0.10274 -0.19042 -0.45487 -0.26764 0.82586 0.1019 -0.33229 0.11279 -0.06307 -0.17637 0.8977 -0.30963 -0.21205 -0.27103 -0.097676 -0.2774 -0.83249 -0.12534 1.0901 -0.28413 0.31003 -0.91695 0.075424 -0.15062 0.14887 0.85337 -0.66712 0.17011 -0.78682 -0.49565 0.67841 0.74915 -0.051542 0.11653 0.013557 -0.13336 0.39488 -0.18075 0.52116 0.30833 0.60081 0.033463 -0.49272 0.91495 -1.0316 0.82187 -0.37524 -0.12056 -0.2897 -0.048592 0.007174 0.17898 -0.48438 0.4271 -0.53121 0.12101 0.084662 0.43053 0.63161 -0.15397 -0.17875 0.16598 -0.031417 -0.2847 0.24217 -0.76198 0.29757 -0.43353 0.22792 0.51183 0.84841 -0.72637 0.58812 0.053363 0.071189 0.24791 -0.35775 -0.67929 -0.00862 -0.23081 0.41494 0.40328 -0.090522 0.78997 -0.15328 0.82358 -0.45644 -0.53361 -0.072218 0.50684 0.68341 0.16198 0.012364 -0.44558 -0.19903 0.047769 -0.05381 -0.46508 -0.21663 0.23803 0.30149 0.68028 -0.18076 -0.94015 0.28168 0.019563 0.26784 0.29673 -0.17138 0.13033 -0.73247 0.53553 0.85151 0.51443 0.28638 0.14293 -0.67603 0.06719 -0.12496 0.14144 0.021617 -0.464 0.42429 -0.30025 0.50643 0.49911 -0.47737 0.45734 0.82984 0.16012 0.24298 0.2166 -0.65621 -0.16686 -1.0665 0.16455 -0.37486 0.19753 0.32209 0.048844 -0.022506 -0.10836 0.09842 0.21714 -0.43078 0.60721 -0.50234 -0.68839 -0.36632 -0.13995 0.027982 0.24475 -0.40214 -0.52633 -0.54376 0.03639 0.63066 -1.2391 -0.56903 -0.48488 -0.15992 0.484 0.20209 -0.36712 0.1371 0.20385 -0.48179 -0.21533 0.67903 -0.13706 -0.3974 0.47856 -0.83658 -0.66703 -0.16527 0.15965 0.66703 -1.3708 -0.45702 -0.040698 1.0968 0.27713 0.74944 0.43488 0.25502 0.049341 0.076311 -0.06206 -0.24782 -0.31006 -0.64925 -1.0959 -0.122 -0.14242 -0.25689 0.97688 -0.23238 0.63744 0.37944 0.53642 0.38462 -0.64116 -0.63042 -0.2192 0.46996 0.71122 0.033941 -0.29477 -0.072926 0.48877 -0.059274 -0.11673 -0.056784 0.84909 0.93029 -0.16774 -0.42241 -0.40552 -0.26289 -0.26404 -0.10319 0.44832 0.11073 0.38609 -0.45439 0.42613 0.47226 -0.081819 -0.37641 0.056717 -1.2259 0.47462 0.41521 -0.63087 -0.46523 1.2113 -0.020198 0.14166 0.35144 -0.15711 0.25949 -0.16994 0.84136 -0.70892 -0.070434 0.17238 -0.17119 0.53328 -0.54484 -0.023923 0.48603 -0.54256 -0.6396 -0.66291 -0.70685 0.37354 -0.49681 -0.51745 -0.51238 0.32085 0.10584 -0.95183 0.0636 0.35302 0.43394 0.080546 0.09831 -0.8841 0.70859 0.85643 0.84449 0.35374 -0.35215 -0.35049 0.23395 -0.30917 -0.28074 -0.16022 -0.27498 -0.075158
 0.408426 -0.134979 0.230241 -0.257 0.382828 0.132992 0.183341 0.264221 -0.436496 -0.739837 0.306324 0.279645 0.103152 0.096361 0.204304 -0.38042 0.090774 -1.179871 0.083262 0.534435 0.332316 0.745948 -0.278977 0.169054 -0.202284 -0.079312 0.047171 0.201829 0.406195 -0.044662 -0.080878 -0.25856 0.531712 0.331602 -0.102381 -0.13591 0.055802 0.337151 0.310055 0.234818 0.00537 -0.277229 -0.628451 -0.508822 -0.101597 0.213998 -0.229451 -0.853932 -0.103672 -0.035998 -0.460534 -0.046907 -0.326065 0.356807 0.682325 -0.060339 0.112724 -0.437512 0.395579 -0.025038 0.262169 -0.433344 -0.207554 0.403087 -0.128529 0.823468 -0.10513 -0.002885 0.086255 -0.046515 -0.282124 0.109004 0.40208 0.150005 -0.007956 -0.135994 -0.165486 0.327285 0.041259 0.25246 -0.28268 -0.058122 -0.1675 -0.117256 -0.323363 -0.159654 0.47831 -0.873691 0.212431 -0.201795 0.025524 0.051403 -0.047138 0.557504 0.050441 0.869221 -0.378449 -0.020972 -0.281175 0.506644 -0.185299 0.484412 -0.223422 -0.133685 -0.29036 -1.03214 0.098846 -0.45869 -0.639009 0.277076 0.009444 0.215265 -0.246912 -0.136833 0.035656 0.539506 0.571735 0.215878 -0.066124 -0.710503 0.106554 -0.560112 0.237842 0.087521 0.387515 0.190466 0.232636 -0.35051 -0.04788 -0.265372 -0.063389 0.065687 0.09897 0.099279 0.350133 -0.563314 -0.255572 -0.180365 -0.179947 -0.682056 0.246465 -0.04541 -0.091286 -0.405129 0.481943 -0.293123 -0.131588 0.271801 -0.053414 0.45931 -0.418457 -0.100893 -0.039546 0.23623 -0.266895 -0.239266 0.389429 -0.254593 0.655476 -0.22258 -0.46827 0.162861 -0.334178 0.82577 0.993685 0.360415 0.309371 -0.510625 0.300498 -0.051403 -0.556224 0.384036 0.185108 0.553091 0.062336 -0.180229 0.059772 0.108277 -0.910681 -0.30688 -0.573421 -0.284922 0.261641 -0.335253 0.43754 0.600138 0.115451 -0.401175 0.02386 0.20217 -0.065814 0.084029 -0.435097 -0.495165 -0.008724 0.021914 0.57565 0.254469 0.035579 -0.130047 0.18669 0.12876 -0.311082 -0.154176 0.405906 -0.136168 0.208743 0.225312 0.260463 -0.084863 0.285875 0.334433 -0.298768 0.052642 -0.314182 0.125957 0.484462 0.196261 0.742198 0.009458 0.316475 -0.497325 0.498924 -0.022035 -0.85708 0.049374 -0.310919 -0.342648 -0.352105 -0.119564 -0.178178 -0.102395 -0.414311 -0.114687 -0.214813 -0.001699 0.500334 -0.374516 -0.665916 0.551991 0.058319 0.138414 0.288988 0.150953 0.111946 0.150726 -0.102488 -0.143843 0.444094 0.346474 0.043517 -0.045971 -0.21369 0.257706 -0.368199 -0.395643 0.211626 -0.162007 -0.201849 -0.112371 0.154021 -0.147436 -0.103476 -0.246258 0.30135 0.62763 -0.009194 0.165376 0.046826 0.218184 -0.017425 -0.279719 -0.256766 -0.123006 -0.037446 0.027695 -0.043515 -0.029541 0.56023 0.0997 -0.346342 0.119691 -0.674422 0.046541 0.00885 -0.18202 -0.207798 -0.216296 -0.085527 0.599538 0.193479 0.247285 -0.199591 -0.09001 0.457635 -0.345176 -0.252475 0.079409 0.645864 -0.597679
V 0.244466 -0.369306 0.114347 0.008957 -0.101177 0.076024 0.071318 0.114911 -0.043184 -1.45924 0.452916 -0.084614 -0.111315 0.165506 0.2712 -0.012531 0.172909 -1.126077 0.289757 0.083463 -0.023942 0.064758 0.111302 0.019211 -0.068588 0.001605 0.129348 -0.025688 -0.164557 -0.075257 0.103038 -0.207303 0.048156 0.047649 -0.268553 0.130492 0.039357 -0.038269 0.056091 0.198371 -0.059132 -0.030908 -0.087035 -0.001116 -0.050448 -0.085933 0.203321 -0.174137 -0.042099 0.022586 0.100694 -0.056403 0.054594 0.00544 0.035254 -0.045499 0.041573 0.005394 -0.051022 0.089243 0.00417 0.014433 0.053639 -0.394682 -0.157167 0.148929 0.000111 -0.122899 0.017419 -0.229379 -0.093518 0.011362 -0.175369 0.00773 -0.14298 -0.075035 -0.062697 0.044082 -0.040201 -0.122489 -0.046139 -0.120711 0.150781 0.069723 0.051334 0.293229 0.318614 -0.135626 -0.330004 -0.138592 0.135805 0.002282 0.093764 0.081685 -0.139972 0.299095 -0.058185 -0.009052 -0.0489 0.147293 0.025876 -0.126391 0.166033 0.068664 -0.029443 -0.384234 -0.025122 -0.149959 -0.152911 -0.127118 -0.136705 0.294547 -0.116814 0.001791 -0.078794 0.034725 -0.045153 -0.046398 0.043913 -0.008656 -0.072623 -0.044241 0.040488 0.143254 0.064029 -0.060305 -0.055414 0.066189 0.082603 0.105569 -0.168545 0.0153 0.044319 0.073919 -0.146258 -0.015468 0.018025 0.012363 -0.084316 0.091806 0.886609 -0.033808 -0.284375 0.009942 -0.006151 0.111854 0.067973 -0.02619 0.037181 0.123846 -0.005674 -0.020239 -0.006673 -0.020891 0.088329 0.126767 0.167414 -0.107485 0.065465 0.057087 -0.11872 0.05052 0.002252 0.253716 0.341774 0.201523 -0.126534 0.201618 -0.219646 -0.055845 -0.034761 0.027529 0.163191 0.112714 0.16555 -0.102383 -0.044465 -0.087412 -0.208021 -0.011416 -0.017648 -0.004381 0.093575 0.161753 0.193158 -0.040225 0.17967 -0.125983 -0.062231 -0.002229 0.257958 -0.011025 0.103716 -0.099001 -0.008878 -0.194745 0.125779 0.1573 0.185067 -0.239707 -0.084973 0.220909 0.016487 -0.134296 -0.266893 -0.102081 0.028332 0.096779 0.093251 -0.010022 0.107148 0.139506 -0.014561 0.302344 -0.143762 -0.207007 0.174579 -0.141533 0.462752 -0.068253 0.04632 -0.069838 0.218018 -0.198837 -0.094471 -0.105931 -0.015079 -0.180747 -0.103799 -0.22178 0.144068 0.03141 -0.172709 -0.098331 0.11871 0.125283 -0.002951 0.078478 0.102165 -0.132879 -0.109408 -0.058452 -0.099739 -0.198777 -0.081383 0.177349 0.149212 0.07061 0.275927 0.042797 -0.011913 -0.003653 0.058414 0.009997 -0.156842 -0.505032 -0.016284 0.205597 0.008227 -0.088989 -0.08011 -0.27287 0.038935 -0.16872 -0.023934 0.273745 -0.017568 -0.066718 -0.444096 0.158201 -0.042009 -0.001994 0.125456 0.263435 0.086151 -0.024711 -0.004689 -0.053242 0.022144 -0.306672 -0.139866 -0.133197 -0.03137 -0.00022 0.138126 0.163083 -0.108893 0.182866 -0.189597 0.058281 0.373718 -0.125492 -0.083354 0.021706 0.02981 -0.016097 0.112971 0.14669 -0.041677 -0.156858
< 0.46111 -0.384327 0.183889 -0.122777 0.11041 0.055533 0.138279 -0.116789 -0.111707 -1.627625 0.490028 -0.291301 0.016703 0.505691 0.585624 0.088538 0.264121 -1.128568 0.338689 0.136976 -0.18632 0.353641 0.112328 -0.07137 -0.254969 -0.012929 0.172886 0.04243 -0.16993 0.073122 0.16232 -0.229816 0.363745 -0.030541 -0.233903 0.145146 -0.079237 0.102674 0.074341 0.311097 0.026936 0.12588 -0.088708 0.055449 -0.316994 -0.147273 0.145704 -0.141162 0.157183 0.103405 -0.043189 0.036045 0.100837 -0.034132 0.195746 -0.17568 -0.047909 -0.058262 0.035822 0.130573 -0.250495 -0.136269 0.237369 -0.611476 -0.08031 0.405129 0.016422 0.020585 -0.053692 -0.257459 -0.172697 -0.123837 -0.155633 0.042773 -0.051533 0.090947 -0.445282 0.368951 0.037191 -0.653807 -0.016063 -0.066607 -0.004048 0.352118 -0.131702 0.447176 0.697208 -0.279523 -0.567559 0.024351 -0.079959 0.018353 0.295873 0.058852 -0.140685 0.513712 -0.153095 -0.106804 0.183419 0.117293 0.011145 -0.075051 0.26189 -0.019354 0.087537 -0.517303 0.315385 -0.398765 -0.427956 0.008338 -0.135078 -0.047483 -0.050531 0.151524 0.111926 0.459245 -0.068384 -0.04499 -0.134807 -0.152377 -0.403376 -0.418244 0.240088 -0.015582 -0.095822 -0.081834 -0.156122 -0.193941 0.155893 0.283863 -0.254081 0.170441 0.037482 0.241543 -0.017468 0.147759 0.141251 -0.072035 -0.117889 -0.237712 0.705978 -0.0233 -0.287875 -0.20562 0.017646 0.105834 0.138586 0.167511 -0.128473 0.355421 0.239132 0.273651 -0.308811 0.202459 0.156495 0.039366 0.117919 -0.224798 0.145958 -0.058884 0.166572 0.017528 -0.004109 0.122276 0.260623 0.052562 -0.226687 -0.018005 -0.194633 0.072809 0.040264 0.43819 -0.010686 0.123722 0.356016 0.041562 0.084839 0.036225 -0.396826 -0.112964 -0.191409 -0.181155 0.214122 -0.052888 0.048383 0.093383 0.260459 -0.136001 -0.152322 -0.098233 0.175183 -0.065359 0.130299 0.125138 0.455791 -0.224907 0.198573 -0.159216 0.409698 -0.23118 -0.146454 -0.127942 0.019283 0.061389 -0.444583 0.161874 0.052155 -0.014168 0.121071 0.018698 -0.066688 0.25901 0.051548 0.140741 -0.308968 -0.408292 0.403159 -0.058037 0.389613 -0.10945 0.198322 0.188504 0.256872 0.011116 -0.201559 -0.065041 -0.220039 -0.404069 -0.000488 -0.644626 0.059949 -0.133847 -0.149305 -0.409342 -0.084699 0.227564 -0.075583 0.196475 0.079529 -0.085757 -0.045068 -0.014859 0.04656 -0.313328 -0.190658 0.288374 0.383855 0.024133 0.379263 -0.036874 -0.298669 0.057523 0.111754 -0.080148 -0.070843 -0.217622 0.072856 0.115974 -0.040352 -0.081813 -0.11073 -0.085799 0.114785 -0.393977 -0.002402 0.391155 0.127985 -0.162724 -0.128259 0.073673 -0.345359 -0.167973 0.138917 0.29157 0.111045 -0.187451 -0.014058 0.145091 0.082506 -0.301364 -0.47805 -0.27893 -0.235661 -0.139779 0.547383 -0.023742 -0.065304 0.340273 0.001245 0.064691 0.685836 0.048257 -0.2595 -0.146527 0.123757 -0.169078 0.219805 0.103893 -0.150911 -0.21972
Ç 0.251125 -0.521244 0.088851 0.208705 -0.066077 0.091721 0.108342 0.162867 -0.244389 -1.699402 0.219525 -0.117252 -0.369668 0.143422 0.143981 -0.098874 0.17072 -1.087711 0.416884 0.184553 -0.106876 0.135441 0.338336 0.22053 0.088626 -0.08986 0.217451 0.044137 -0.380192 -0.187788 0.170839 -0.282873 -0.123223 -0.072616 -0.194453 0.381942 0.024353 0.125506 0.081988 0.068031 -0.229552 -0.282027 0.069522 0.160806 -0.04694 -0.29324 0.252551 -0.318773 -0.089402 -0.01125 0.066598 -0.06792 -0.033156 0.153266 0.11228 -0.043823 0.128081 -0.093346 -0.056705 0.083866 0.026538 -0.031877 0.194636 -0.547425 -0.277304 0.252467 0.1703 -0.417895 -0.042357 -0.255546 -0.224095 -0.035424 -0.334402 0.119388 0.014827 -0.175789 0.189192 0.075613 -0.216428 -0.326042 0.109797 -0.323307 0.220989 -0.03315 -0.101719 0.481665 0.567968 -0.244384 -0.33932 -0.258502 0.392337 -0.044978 0.221518 0.234662 -0.552613 0.43694 -0.008255 0.034246 0.036363 0.148737 -0.127715 0.061069 0.153897 -0.052158 -0.058528 -0.417944 -0.300249 -0.351583 -0.073061 -0.246748 0.036526 0.421262 -0.246486 0.200039 -0.251893 -0.08384 -0.235759 -0.027741 0.214806 -0.137532 0.004134 -0.077928 0.007884 0.066507 0.2533 0.006941 0.026834 0.280753 0.191522 0.204406 -0.053388 -0.049067 0.260493 0.082042 -0.113555 -0.169203 -0.084082 -0.162654 0.116064 0.086602 0.988419 0.039951 -0.272497 -0.104362 0.125883 0.139082 0.340733 0.016318 0.014067 0.182049 0.170413 0.009197 -0.225463 0.149312 0.175699 0.317396 -0.021264 -0.302682 0.094886 -0.022681 -0.061647 0.015932 -0.08506 0.354149 0.348022 0.446706 -0.402846 0.307605 -0.385566 0.196393 -0.054146 0.19631 0.028435 0.160397 0.13677 -0.209599 -0.002185 0.029069 -0.380517 -0.070597 0.056474 -0.091557 0.127892 0.163856 0.071395 -0.019953 0.26653 -0.256366 -0.137242 0.089497 0.351061 0.121172 0.10974 -0.128995 0.159534 -0.265953 0.354193 0.061497 0.080688 -0.278038 -0.174951 0.419473 0.192989 -0.162853 -0.520342 0.043898 0.233203 0.163979 0.149083 0.019831 0.371891 0.263178 -0.078865 0.466267 0.005151 -0.137445 0.381025 -0.17054 0.645543 0.098372 0.080441 -0.118111 0.316853 -0.289737 0.029189 0.089544 0.157312 -0.191119 0.204574 -0.141474 0.037387 0.063581 -0.274317 -0.247511 0.116018 0.202797 0.014813 -0.04103 0.163264 -0.262112 -0.15455 0.197793 0.037024 -0.385511 -0.133592 0.23581 0.223388 -0.014653 0.380106 0.170648 0.002563 -0.056213 0.021593 -0.058536 -0.189232 -0.514163 -0.354278 0.394787 0.121629 -0.205115 -0.224596 -0.48177 0.072084 -0.24924 -0.110736 0.485925 0.0256 -0.163797 -0.731683 0.213297 -0.25304 0.046654 0.102458 0.229229 -0.155212 -0.072867 -0.015923 -0.350975 -0.048433 -0.323194 -0.139565 -0.333207 -0.053285 -0.048346 0.196511 0.098478 -0.215068 0.387466 -0.308234 0.194403 0.389328 -0.17705 -0.260182 0.074226 0.36533 0.019636 0.23122 0.203452 0.05413 -0.220938
3 0.19339 -0.296952 0.29471 -0.01346 -0.282129 0.089555 0.077576 -0.008201 -0.001982 -1.577759 0.476057 0.02335 -0.208421 0.19858 0.175122 0.03228 0.142516 -1.081841 0.390047 0.124188 0.024792 0.178125 0.273662 0.111746 0.000798 0.065537 0.200262 -0.14473 -0.125424 0.149561 0.119425 -0.165595 0.014834 0.016717 -0.277218 0.129186 0.003031 0.108959 0.090633 0.430309 -0.153907 -0.323736 -0.119655 0.199357 -0.035556 -0.053994 0.273793 -0.0341 -0.088791 0.123162 0.104361 0.182562 -0.034742 0.027308 0.135409 0.028911 0.015352 0.066188 0.130476 0.19153 -0.072264 -0.139774 -0.067829 -0.593908 -0.415837 0.157479 0.091226 -0.099505 -0.091556 -0.38543 -0.005449 -0.207829 -0.322139 0.030239 -0.027529 0.030155 0.013659 0.272418 -0.088462 -0.246387 -0.104179 -0.074656 0.191657 -0.003967 -0.004764 0.400511 0.742759 -0.027121 -0.417532 -0.156949 0.203705 -0.205329 0.058323 0.14605 -0.041316 0.303783 -0.129179 -0.057448 -0.086778 0.058544 -0.027486 -0.086616 0.222251 0.191131 -0.00694 -0.412673 -0.053997 -0.227723 -0.081865 -0.015892 -0.000117 0.216768 -0.109201 0.129553 -0.089096 0.170267 -0.061067 -0.148203 -0.002168 -0.259798 -0.210948 0.076528 -0.097526 0.085556 -0.013805 -0.037778 -0.141201 0.140905 0.077096 0.075754 -0.031072 -0.04395 0.090001 0.069193 -0.295767 -0.039865 0.05922 0.136359 -0.145242 0.100246 0.898961 0.134162 -0.19066 0.000702 -0.015119 0.216902 0.078539 -0.101352 -0.035214 0.119807 -0.019866 -0.158934 -0.025831 0.0047 0.111039 0.193848 0.246181 -0.077028 0.093392 0.256264 -0.069598 -0.036216 0.051051 0.110282 0.173697 0.33929 -0.247962 0.124365 -0.383576 -0.029389 0.100309 -0.004036 0.108513 0.176329 0.202433 -0.193755 -0.085848 -0.177221 -0.247817 -0.020255 -0.007618 0.126548 0.235685 0.19374 0.28676 -0.009021 0.215594 -0.048016 -0.12373 0.081193 0.299 0.124693 0.195616 -0.317436 -0.041591 -0.304283 0.035056 0.17817 0.295353 -0.257997 -0.010481 0.17254 0.104263 -0.153336 -0.314763 -0.133368 -0.126638 0.081472 0.1411 0.035739 0.248335 0.018571 -0.008986 0.247085 -0.031705 -0.218119 0.192956 -0.131478 0.425937 0.041578 0.199601 -0.184724 0.171348 -0.275028 -0.057628 -0.062136 0.069897 -0.272845 -0.027795 -0.389658 0.173084 -0.02774 -0.229085 -0.110608 -0.004666 0.124248 0.005834 0.06518 0.208106 -0.260277 -0.082176 -0.114701 -0.155816 -0.236076 -0.171559 0.206749 0.147452 0.164459 0.412568 0.024195 -0.116583 0.080039 0.088008 0.178405 -0.004671 -0.526481 -0.127682 0.130543 -0.064796 -0.122611 -0.236827 -0.241924 -0.026773 -0.179439 -0.151976 0.184971 0.053067 -0.095993 -0.63688 0.273989 -0.251245 0.019507 0.150966 0.26263 -0.115989 0.000533 -0.061401 -0.274629 -0.192913 -0.254816 -0.347692 -0.194377 -0.084129 -0.04329 0.298427 0.129304 -0.192935 0.127847 -0.246594 0.30976 0.565956 -0.085858 -0.192359 0.154748 -0.116695 0.064869 0.077109 0.281424 -0.050216 -0.174304
À 0.410354 -0.506492 0.246794 -0.116724 -0.062929 -0.024424 0.229531 0.23014 -0.135439 -1.494312 0.428728 0.003612 -0.071388 0.169155 0.506069 -0.020751 -0.053085 -1.162225 0.184535 0.116036 -0.030437 0.125106 0.122624 -0.059228 -0.03282 -0.138029 0.160169 0.102454 -0.211361 -0.131214 0.046146 -0.420364 0.088934 0.146712 -0.111315 0.081716 -0.002942 -0.154794 -0.064928 0.093956 0.1536 0.122423 -0.088677 0.273534 0.082909 -0.109169 0.151491 -0.159724 0.093042 0.122519 0.059579 0.064576 0.343227 0.053743 0.210177 0.167194 0.122187 -0.225512 0.216435 0.072251 -0.087372 -0.173616 -0.071268 -0.25381 -0.235911 0.035864 0.007554 -0.263667 0.137888 0.078717 -0.059886 -0.18448 -0.245508 0.056024 -0.201226 -0.085417 0.23727 0.150095 -0.137361 -0.176254 0.123446 -0.32155 0.200815 0.058293 0.233625 0.443805 0.29698 -0.47855 -0.583336 -0.155201 0.121131 0.105772 0.282136 -0.067799 -0.342312 0.399193 -0.357396 0.196834 -0.159858 -0.008925 -0.109673 -0.145628 -0.378279 -0.210192 -0.055118 -0.456426 0.031387 -0.270362 -0.30946 -0.333947 -0.195794 0.316101 0.035217 0.183541 -0.052499 -0.080282 -0.293778 -0.201149 0.269337 -0.096315 -0.315367 -0.055472 -0.116191 0.353211 0.132404 -0.376295 -0.038335 0.275419 0.273346 0.113148 -0.199176 0.188942 0.039338 0.162163 -0.082712 0.121376 -0.275876 0.038672 -0.003055 0.139504 0.786675 -0.034549 -0.502829 0.214684 -0.220272 0.4496 0.193206 0.07186 -0.200729 -0.06502 -0.041746 0.136344 -0.144416 -0.092235 0.123908 0.174343 -0.147467 -0.414904 0.190063 0.07552 0.154363 -0.131132 -0.034238 0.205986 0.290756 0.609866 -0.243425 0.256693 -0.3527 -0.244883 -0.197242 0.127069 0.055219 0.259488 0.219842 -0.044305 -0.109977 -0.092476 -0.506206 -0.322234 0.093486 0.140784 0.293583 0.128546 0.214667 0.023411 0.351793 -0.160716 0.117077 -0.03476 0.324799 0.01542 -0.124573 -0.186274 -0.058139 -0.127867 0.037974 -0.09735 -0.055905 -0.09981 -0.119074 0.509244 0.070836 -0.071443 -0.407095 -0.093235 -0.09574 0.333282 0.098147 -0.111546 0.458311 0.209671 0.014158 0.29455 -0.149648 0.350183 0.166611 -0.19636 0.392699 0.164555 0.182312 0.321798 0.376923 -0.090783 -0.039517 0.28629 0.089743 -0.081289 -0.11431 -0.2079 -0.085719 0.481897 -0.175448 -0.483065 -0.233052 -0.004384 0.035044 -0.07248 -0.060705 -0.05002 0.068381 0.288946 -0.310496 -0.186756 0.024388 0.11192 0.209193 0.193754 0.342387 0.197347 0.041459 0.059796 -0.062607 0.078762 -0.21076 -0.382885 -0.349501 0.008421 0.176828 -0.236989 0.068992 -0.617711 0.50155 -0.208726 -0.067566 0.019461 -0.076822 -0.156881 -0.789755 -0.111565 -0.135244 -0.243559 0.069382 0.514859 0.001494 -0.172642 0.049082 -0.186459 0.088603 0.041119 -0.384149 -0.208666 0.111473 -0.225487 0.056073 0.202306 0.029838 0.303348 -0.166529 0.182607 0.220561 -0.218565 -0.157486 -0.058632 0.285416 -0.051845 0.365065 0.139193 0.328704 -0.215097
? 0.230672 -0.166661 0.112118 0.011054 0.058076 -0.018576 0.176421 -0.108385 -0.034405 -1.225804 0.183236 -0.137361 -0.095049 0.444373 0.17321 -0.118597 0.116629 -0.805746 0.302629 -0.119114 0.182115 -0.000195 0.059844 -0.096483 -0.179655 -0.151935 0.141397 0.124376 -0.185735 0.108749 0.210302 -0.30497 0.122521 -0.030837 0.050188 0.258287 -0.065831 0.032257 0.151108 0.235164 -0.097539 -0.111812 -0.209686 -0.044457 0.032824 -0.01552 -0.015701 -0.156009 -0.176009 0.15451 -0.028336 -0.032147 -0.128743 -0.128588 -0.00845 -0.277135 0.088282 -0.027556 0.116693 0.074741 -0.131477 -0.049067 0.114403 -0.329863 -0.251574 0.157862 -0.012238 -0.187129 -0.080347 -0.329863 0.109719 -0.217937 0.113884 0.149607 -0.081078 0.162556 0.062662 0.097653 -0.088667 -0.098402 -0.143097 -0.257838 0.020352 0.04661 -0.096294 0.395261 0.505735 -0.302912 -0.240841 -0.161293 -0.095643 -0.113845 -0.13614 0.35811 -0.143627 0.447674 -0.25833 -0.193274 -0.039017 -0.016547 -0.234662 0.003428 0.286242 -0.117746 0.132487 -0.513667 -0.234568 -0.247646 -0.171833 0.008451 -0.009953 0.025254 0.091582 0.214314 0.055666 0.33537 -0.023028 -0.04832 -0.103819 -0.157918 -0.026726 -0.003608 -0.074214 0.137048 -0.133468 0.073371 -0.171597 -0.16568 0.352082 -0.080491 -0.012102 -0.003683 0.112426 0.15508 0.123906 -0.105702 0.028911 -0.059235 -0.225607 0.091653 0.456413 0.081193 -0.42958 -0.04187 0.133148 0.060338 0.113434 0.3267 -0.221853 0.202915 0.045566 0.181181 -0.153358 -0.065763 0.190606 0.192546 0.042386 -0.045901 0.053288 0.044925 0.085752 -0.018136 -0.060858 0.21053 0.367252 0.234678 -0.227372 -0.060106 0.119168 0.258068 -0.052268 0.139627 0.113581 0.255293 0.21956 0.158658 -0.042725 0.021432 -0.119037 -0.053417 -0.143995 0.130922 -0.023791 -0.068511 0.267633 0.05556 0.161433 -0.133674 0.031269 -0.041552 0.407896 0.248048 0.053882 -0.33886 0.147696 -0.085751 0.249824 0.209214 0.451307 -0.144943 0.095086 0.22993 -0.051081 -0.105121 -0.126518 -0.001901 0.203948 0.101434 0.299111 -0.003031 -0.024097 0.193752 0.098303 0.179972 -0.111642 -0.414578 -0.015841 -0.045943 0.41948 -0.002009 0.150503 -0.060506 0.16761 -0.034264 -0.206842 -0.151145 -0.170617 -0.249839 -0.076538 -0.423799 -0.068865 -0.219908 -0.063155 -0.165621 -0.114589 -0.181098 0.09873 0.138724 -0.074105 -0.221169 -0.172291 -0.160436 -0.163665 -0.040192 -0.002751 0.052411 0.356177 0.246724 0.185142 0.131998 0.130618 -0.216643 0.002013 0.049402 -0.304508 -0.538949 -0.112984 0.147569 0.004682 -0.0477 -0.191315 -0.225443 0.18025 -0.323849 0.075398 0.351981 -0.071384 0.04984 -0.296333 0.342425 -0.27221 0.149964 0.171767 0.246847 -0.229258 0.201897 -0.027642 -0.111673 0.059606 -0.130811 -0.282279 -0.105315 -0.119829 0.080198 0.224336 0.257609 -0.047429 0.1675 -0.236645 0.007892 0.464239 -0.289791 -0.189236 0.020953 0.220398 -0.101394 0.04381 0.162467 0.151086 -0.038481
F 0.225226 -0.347607 0.087743 0.048817 -0.115192 0.075035 0.065877 0.144933 -0.034768 -1.429031 0.391477 -0.065475 -0.079852 0.220304 0.248838 -0.011895 0.163482 -1.174116 0.28837 0.115337 -0.003961 0.067367 0.10368 0.006617 -0.10903 -0.008018 0.121116 -0.014077 -0.168668 -0.083945 0.113513 -0.164763 0.044003 0.028356 -0.229452 0.085026 0.003128 -0.036376 0.077995 0.184178 -0.061923 -0.075714 -0.102529 0.019708 -0.024607 -0.061186 0.201528 -0.180682 -0.046827 0.045464 0.080448 -0.038627 0.031417 -0.006062 0.009082 -0.080272 -0.003559 -0.008427 -0.037766 0.078821 0.018289 0.026424 0.018278 -0.396681 -0.171429 0.133273 -0.036107 -0.108772 0.011054 -0.225239 -0.033611 -0.01082 -0.189775 0.022445 -0.100561 -0.025104 -0.062665 0.064609 -0.022009 -0.129887 -0.034137 -0.121088 0.118611 0.049519 0.005477 0.283796 0.308958 -0.072121 -0.318848 -0.137915 0.086688 -0.009681 0.079601 0.11703 -0.103605 0.32452 -0.088851 0.009009 -0.030663 0.119008 0.027683 -0.142709 0.115614 0.093322 -0.032745 -0.34277 -0.020327 -0.111974 -0.16007 -0.121493 -0.085137 0.306677 -0.136175 -0.003823 -0.078932 0.053739 -0.050442 -0.043878 0.033625 -0.039314 -0.076378 -0.039152 0.03475 0.140822 0.068253 -0.069114 -0.058038 0.000871 0.037426 0.093802 -0.137295 0.016547 0.067078 0.097216 -0.14122 -0.014598 0.011183 0.004231 -0.08881 0.054128 0.864867 -0.038383 -0.26049 0.017185 0.015961 0.085715 0.126957 -0.001887 -0.018981 0.183524 -0.006865 0.006566 -0.054095 -0.025365 0.128624 0.147624 0.149756 -0.105342 0.048469 0.070072 -0.081964 0.038314 -0.024217 0.221673 0.340988 0.155137 -0.122692 0.166079 -0.247072 -0.039577 0.014624 0.065863 0.155789 0.105208 0.125015 -0.063791 0.017269 -0.091901 -0.217867 0.010311 -0.020887 -0.030326 0.0712 0.166286 0.239151 -0.042381 0.172715 -0.109712 -0.043193 -0.004128 0.262966 0.023596 0.069611 -0.141742 0.029626 -0.147763 0.174894 0.127801 0.204613 -0.262291 -0.07892 0.204399 0.079159 -0.095407 -0.254927 -0.101683 -0.028001 0.090241 0.08444 0.010449 0.13794 0.202159 0.005996 0.296913 -0.148461 -0.214419 0.154764 -0.11763 0.430407 -0.050658 0.046104 -0.072384 0.230537 -0.193345 -0.078954 -0.095159 -0.056741 -0.190351 -0.081626 -0.244555 0.129054 0.006083 -0.182098 -0.086178 0.083803 0.110254 -0.007794 0.083359 0.149759 -0.154147 -0.086402 -0.025794 -0.109712 -0.168121 -0.102501 0.193233 0.144512 0.116417 0.31301 0.04089 -0.000319 -0.04406 0.036558 0.054042 -0.108915 -0.526608 -0.014769 0.163496 -0.007701 -0.109502 -0.13914 -0.281846 -0.049388 -0.18667 -0.020432 0.288476 -0.013001 -0.082439 -0.441694 0.133217 -0.015371 -0.012454 0.14091 0.260095 0.06657 -0.003406 -0.022538 -0.058349 0.040735 -0.272682 -0.165476 -0.158691 -0.082307 -0.001205 0.134933 0.122 -0.140828 0.170038 -0.208228 0.060734 0.36955 -0.090236 -0.050159 -0.006608 -0.001153 -0.021939 0.111127 0.15935 -0.056991 -0.152338
E 0.25614 -0.344859 0.097228 0.031215 -0.045091 0.029956 0.025443 0.148367 -0.023822 -1.601453 0.317858 0.014082 -0.146251 0.212988 0.311324 -0.014277 0.151544 -1.061629 0.268634 0.066623 -0.020767 0.097766 0.132828 0.041368 -0.050857 -0.078522 0.134299 0.016262 -0.200181 -0.166418 0.105607 -0.14553 0.01256 0.038844 -0.245178 0.091686 0.092866 -0.013829 0.077632 0.301393 -0.055665 0.002638 -0.018521 0.054393 0.000595 -0.103928 0.211222 -0.23289 -0.019118 0.052449 0.102698 -0.093078 0.014435 -0.039514 -0.026337 -0.060402 0.024285 0.009074 -0.044928 0.058655 -0.027641 0.002618 0.055887 -0.378512 -0.178718 0.142109 0.02493 -0.169893 0.063711 -0.188335 -0.040486 0.006722 -0.204527 0.029995 -0.107762 -0.027079 -0.053249 0.008139 -0.03152 -0.198921 -0.07788 -0.146456 0.216588 0.048022 0.028006 0.230413 0.381509 -0.347401 -0.31343 -0.083534 0.145209 0.086934 0.094632 0.036449 -0.171135 0.201461 -0.098377 0.009217 -0.044922 0.103449 -0.01126 -0.164028 0.115263 0.016637 -0.065137 -0.406891 -0.045271 -0.133897 -0.125223 -0.1395 -0.067875 0.335144 -0.077847 0.030425 -0.060009 0.020283 -0.046754 -0.081941 0.03251 -0.071777 -0.052262 -0.026372 0.018411 0.158478 0.190777 -0.024919 -0.022639 0.120924 -0.003557 0.150207 -0.132475 -0.075776 0.012984 0.013016 -0.183165 -0.013435 -0.022551 -0.004793 -0.012049 0.090004 0.909978 0.003197 -0.257858 0.032655 0.01866 0.089885 0.146555 0.025417 0.092293 0.079179 0.01699 0.07057 -0.068562 -0.018986 0.19105 0.145013 0.110473 -0.154227 0.05084 0.144085 -0.126644 0.023641 -0.054542 0.158148 0.284326 0.219207 -0.113019 0.085895 -0.26404 0.036877 -0.034295 0.044811 0.149637 0.059369 0.189501 -0.105464 0.020658 -0.048948 -0.219483 -0.001402 -0.059331 -0.021844 0.076282 0.199684 0.248654 -0.089698 0.145139 -0.11464 -0.04334 0.024903 0.237888 0.048017 0.135758 -0.116346 -0.024178 -0.276964 0.084779 0.132662 0.12148 -0.242242 -0.029443 0.287753 0.051423 -0.125409 -0.285289 -0.145113 0.021129 0.046687 0.163677 -0.009917 0.126818 0.185177 -0.034096 0.371875 -0.10115 -0.218827 0.191671 -0.349078 0.402794 -0.064623 0.09602 -0.042554 0.199276 -0.239713 -0.07352 -0.091502 -0.042194 -0.129194 -0.125028 -0.285825 0.178975 0.022757 -0.185834 -0.114592 0.168665 0.165158 0.003816 0.072666 0.055159 -0.140889 -0.102203 -0.131298 -0.104624 -0.235458 -0.104895 0.238813 0.114536 0.124596 0.342706 0.111946 -0.044314 -0.023388 0.051361 0.042245 -0.166066 -0.523089 -0.018659 0.184354 0.003929 -0.025162 -0.113192 -0.317704 0.091388 -0.143668 -0.02934 0.289271 -0.036635 -0.058172 -0.387585 0.064397 -0.1963 0.077772 0.134486 0.246149 0.088478 -0.055445 -0.018165 -0.073671 0.037296 -0.308476 -0.117512 -0.182997 -0.056393 0.03959 0.151274 0.110186 -0.164287 0.174204 -0.238861 0.063691 0.40912 -0.091931 -0.095648 0.008705 0.039938 0.050603 0.143497 0.144698 -0.089179 -0.197777
¯ -0.14884 -0.086412 -0.37096 0.3346 0.019679 0.4028 0.25701 -0.01502 0.089728 -0.30874 0.07542 0.001116 0.005956 0.16807 0.19141 -0.18572 -0.55974 1.0663 -0.63552 0.81249 0.22959 0.34714 -0.48766 -0.41568 0.24886 -0.38324 0.14791 -0.041318 -0.040754 0.19405 0.3073 -0.56723 0.36292 0.38189 -0.28873 0.31541 0.14188 0.21289 0.035662 0.24612 0.16904 -0.66254 -0.29223 -0.28438 0.040415 -0.33029 -0.12288 -0.022597 -0.2925 -0.093534 -0.22414 -0.11137 0.076661 -0.058643 0.41045 0.1059 0.26333 -0.43995 0.5708 0.017064 0.22899 -0.54889 -0.17327 0.074665 -0.83024 0.80724 0.18726 -0.044894 -0.010594 -0.090036 -0.14416 -0.44851 -0.35773 -0.18155 -0.22591 -0.4483 -0.28784 -0.04783 -0.040819 -0.11194 0.17381 0.14779 -0.22576 0.23152 0.15914 -0.15364 0.14134 -0.91568 -0.10327 -0.072922 -0.36839 0.44081 0.35628 0.29165 -0.52722 0.73514 -0.31115 -0.27702 -0.025771 0.14005 0.29605 0.72411 0.04703 -0.84694 -0.072248 0.22785 0.20202 -0.68899 -0.52507 0.25101 0.46634 0.17196 -0.24424 0.29516 -0.06553 0.63548 0.20242 -0.63218 0.42021 -0.54342 0.48059 -0.057659 0.28845 -0.29505 -0.051242 0.23938 0.45654 0.32495 0.37562 0.35968 0.13825 -0.06473 0.1516 -0.047259 -0.3844 -0.038029 -0.28624 -0.37774 -0.50079 -0.39049 -0.46419 0.014999 0.11706 -0.41118 -0.19632 -0.29682 0.030672 0.48229 -0.20303 0.40061 0.34405 0.48439 -0.46672 0.51673 -0.39178 0.43609 -0.33325 -0.39451 0.86029 -0.46493 -0.12253 0.080383 -0.14454 0.62278 0.26675 0.56529 0.23159 -0.67978 -0.43732 0.37921 -0.77141 0.34445 -0.27725 0.26767 -0.38832 -0.69233 0.29796 0.30525 -0.31608 0.05978 -0.1758 -0.051453 -0.10076 0.19755 -0.41389 0.2696 -0.34374 -0.26284 0.37313 -0.67999 -0.17493 -0.32323 -0.10429 -0.069863 0.58579 -0.57942 0.32592 -0.45799 -0.23245 0.82495 0.54865 -0.028164 0.37936 0.30576 -0.1876 -0.41473 0.6455 0.18671 -0.1139 -0.36729 0.005926 -0.14455 -0.14456 0.092433 0.18181 0.17713 0.20558 -0.038937 -0.55219 -0.20772 0.29273 0.11173 0.06472 0.33117 -0.33365 0.2232 -0.57093 0.043427 0.085088 0.08679 -0.30645 -0.72466 -0.51005 0.13533 -0.15151 0.20895 0.097929 -0.085433 -0.75428 0.31632 0.048105 0.34597 0.51593 0.12926 0.11877 0.33236 -0.028475 0.049239 -0.14163 -0.11264 -0.017297 -0.010539 -0.042413 -0.07879 -0.60551 0.45501 -0.39636 0.14021 0.092938 -0.13265 0.033574 -0.16187 0.13826 -0.35625 -0.43728 -0.1992 -0.29588 -0.018176 0.19911 -0.42257 -0.4193 0.33865 -0.78956 0.10977 -0.75736 -0.41472 0.11406 0.19652 -0.13542 0.33425 -0.17772 -0.13366 -0.40893 -0.40044 0.03115 -0.31652 -0.10694 0.086712 0.012206 0.56222 0.27294 -0.056267 -0.42125 -0.32141 1.0172 -0.57322 0.11106 0.065298 0.71499 -0.36877
f 0.240419 -0.285626 0.124084 0.019504 -0.121027 0.112778 0.066681 0.095276 -0.078658 -1.244643 0.412554 -0.070242 -0.072819 0.195938 0.262231 0.040102 0.185996 -1.147563 0.312822 0.063958 0.016426 0.058181 0.109112 -0.009715 -0.100017 -0.029587 0.121854 -0.020598 -0.11799 -0.026233 0.142247 -0.183585 0.049588 -0.00816 -0.229656 0.047493 -0.040881 -0.063939 0.060375 0.131519 -0.149323 -0.078513 -0.169636 0.005412 -0.046528 -0.031136 0.177471 -0.174406 -0.09031 0.03506 0.049937 -0.004554 0.057649 -0.012352 0.034525 -0.068388 0.005311 -0.032421 -0.004004 0.105555 -0.008817 0.033273 -0.009809 -0.369867 -0.117721 0.160585 -0.008418 -0.115319 -0.014058 -0.229813 -0.01068 -0.021264 -0.172273 0.008212 -0.098992 -0.122919 -0.098448 0.116393 -0.030986 -0.122278 -0.0611 -0.074185 0.1113 0.092404 -0.030262 0.260481 0.521874 -0.03352 -0.292939 -0.166611 0.08112 -0.095936 0.06521 0.147704 -0.082961 0.392381 -0.056993 -0.075198 -0.051922 0.059374 -0.015327 -0.056496 0.076646 0.048868 -0.037404 -0.840085 -0.012632 -0.111453 -0.146821 -0.132387 -0.1295 0.26478 -0.165877 0.020445 -0.053659 0.077828 -0.031756 -0.006576 0.062013 -0.058598 -0.056007 -0.021796 0.037104 0.162267 0.009188 -0.033483 -0.096923 -0.005873 0.113578 0.072119 -0.131204 0.001925 0.021706 0.118623 -0.074388 -0.040175 0.007005 -0.044189 -0.10049 0.045769 0.631117 -0.031746 -0.234765 -0.044079 0.021209 0.078643 0.169642 -0.043049 -0.029583 0.163896 0.013576 -0.081583 0.008465 -0.048054 0.077867 0.154749 0.154193 -0.14698 0.057333 0.051475 -0.049108 0.066726 0.020592 0.257399 0.367406 0.12079 -0.142733 0.139483 -0.183019 -0.078418 0.003413 0.067611 0.209114 0.143872 0.092751 -0.065095 -0.060268 -0.100671 -0.306794 -0.023537 -0.038859 -0.025793 0.084135 0.121671 0.212226 -0.028982 0.170817 -0.116868 -0.01246 7.1e-05 0.220147 0.046427 0.126553 -0.13502 0.050027 -0.076811 0.212259 0.11835 0.313718 -0.25816 -0.080102 0.153223 0.051724 -0.083882 -0.231438 -0.028748 -0.003411 0.088067 0.08231 0.044618 0.075676 0.213805 -0.003107 0.203726 -0.168797 -0.242888 0.150281 -0.005491 0.499411 -0.030784 0.046213 -0.104015 0.217681 -0.164167 -0.09085 -0.151608 -0.132935 -0.178531 -0.152164 -0.279589 0.132533 -0.021961 -0.099393 -0.071852 0.011036 0.104567 0.031491 0.116563 0.14395 -0.139242 -0.01361 -0.002155 -0.128778 -0.084787 -0.048443 0.156838 0.06308 0.068954 0.332039 -0.019368 -0.050967 -0.047617 0.039093 0.083934 -0.07216 -0.509675 -0.010631 0.124663 -0.038822 -0.110496 -0.157727 -0.225768 -0.028717 -0.18708 -0.003663 0.328635 -0.021857 -0.005217 -0.421062 0.161934 -0.13299 -0.075361 0.155091 0.219112 0.036365 0.044354 0.01894 -0.000682 0.093521 -0.289075 -0.225718 -0.171714 -0.139479 -0.097744 0.101798 0.104411 -0.098032 0.138358 -0.198534 0.034006 0.338124 -0.104885 -0.014413 -0.01158 0.055087 0.006426 0.056146 0.179981 -0.079039 -0.120347
- 0.260131 -0.345481 0.218569 0.021471 -0.199723 0.092461 0.043778 0.10551 -0.078306 -1.431578 0.46677 -0.08654 -0.069831 0.208864 0.290021 0.072146 0.21626 -1.137685 0.358376 0.07198 -0.011759 0.047061 0.139425 0.048195 -0.09731 0.001891 0.128994 -0.051369 -0.163036 0.036843 0.141324 -0.205331 0.018249 -0.029974 -0.215708 0.077727 0.007895 0.021212 0.114935 0.254338 -0.17158 -0.129189 -0.167958 0.026565 -0.077269 -0.017398 0.156655 -0.170337 -0.100544 0.048574 0.053967 0.09799 0.065933 0.001562 0.002886 0.019064 0.095904 0.018472 0.005063 0.124093 -0.038432 0.039649 0.00521 -0.389135 -0.242386 0.178691 0.039646 -0.150237 -0.062933 -0.1978 -0.023409 -0.059252 -0.232127 0.069739 -0.095611 -0.122849 -0.121677 0.124701 -0.033936 -0.128594 -0.061427 -0.083333 0.112141 0.068797 -0.020173 0.327288 0.507489 -0.015032 -0.335775 -0.136971 0.115454 -0.069592 0.090303 0.150733 -0.098963 0.32754 -0.09894 -0.044121 -0.064939 0.054243 0.006774 -0.084429 0.098142 0.037442 -0.082345 -0.758038 -0.015421 -0.155383 -0.077442 -0.08316 -0.118757 0.298431 -0.167433 0.044296 -0.049904 0.069661 -0.011724 -0.069918 0.077988 -0.136358 -0.077908 0.00924 -0.017729 0.146135 -0.005586 -0.061845 -0.108774 0.098853 0.078854 0.062728 -0.044868 0.018737 0.036247 0.105527 -0.201025 -0.048926 0.020723 0.026404 -0.089671 0.012847 0.76534 -0.027532 -0.25773 -0.057571 -0.002256 0.129022 0.124851 -0.142748 -0.01055 0.165679 -0.012622 -0.052043 -0.018341 0.012499 0.034995 0.227082 0.181993 -0.142634 0.026549 0.074594 -0.104206 0.013997 0.028044 0.222693 0.347093 0.161897 -0.18965 0.156355 -0.18238 -0.104423 0.090926 0.115301 0.209407 0.204527 0.098582 -0.103745 -0.019107 -0.152384 -0.324871 -0.064856 -0.078035 -0.013644 0.077252 0.117914 0.263971 -0.071641 0.21397 -0.082917 -0.040402 -0.009633 0.289948 0.130858 0.173858 -0.121415 -0.002663 -0.157019 0.113645 0.158317 0.302697 -0.235823 -0.046875 0.128028 0.035831 -0.083352 -0.23006 -0.103787 -0.051389 0.059378 0.097498 0.083082 0.116351 0.16267 0.009069 0.239924 -0.164776 -0.233577 0.147766 -0.064606 0.486306 0.0365 0.116902 -0.112593 0.182659 -0.158739 -0.054869 -0.141245 -0.104401 -0.210021 -0.111692 -0.29781 0.173153 -0.002763 -0.121125 -0.096974 -0.012797 0.133512 0.019713 0.112443 0.195485 -0.182763 -0.11197 -0.013809 -0.151371 -0.063003 -0.125718 0.181279 0.100982 0.083633 0.370192 -0.021159 -0.067866 0.010425 -0.020283 0.073031 -0.113656 -0.530235 -0.0516 0.078185 -0.084361 -0.147806 -0.204334 -0.251567 -0.009489 -0.209138 -0.072858 0.267499 -0.017809 -0.031414 -0.429013 0.162563 -0.133633 -0.096756 0.127213 0.229163 0.000853 0.003327 -0.026373 0.066199 0.129689 -0.321664 -0.247224 -0.215442 -0.057707 -0.098574 0.171064 0.117522 -0.194984 0.104984 -0.225354 0.088428 0.37561 -0.057664 -0.035587 0.002443 -0.070821 0.061678 0.037258 0.171797 -0.082597 -0.163058
Å 0.320058 -0.549814 0.060977 0.132655 -0.232054 -0.01684 0.105295 -0.103441 0.044578 -1.446056 0.23231 -0.030237 -0.024298 0.387749 0.464592 -0.043105 0.188928 -1.251046 0.387062 0.022182 0.306055 0.231548 0.230318 0.07192 -0.293339 0.062886 0.14257 -0.105087 -0.293413 0.123131 0.092048 -0.16951 -0.042614 0.116861 -0.096159 0.20688 0.021198 -0.064044 0.099315 0.229467 -0.08679 -0.242752 -0.299238 0.192581 -0.198096 -0.181523 0.157843 -0.233721 -0.020315 -0.110226 0.234732 0.103651 0.170736 0.093206 0.161075 -0.326298 -0.047571 -0.296812 -0.004303 0.135626 -0.111225 -0.003672 0.185991 -0.426343 -0.362176 0.047166 0.043263 -0.096717 0.082393 -0.397447 -0.363648 -0.01108 -0.246109 -0.045738 -0.237622 -0.036465 -0.006676 0.137741 -0.026726 -0.330066 0.285845 -0.261486 0.317127 0.147622 0.079186 0.3006 0.473373 -0.284538 -0.28457 -0.014398 0.101756 -0.011386 0.247867 0.223332 0.023363 0.30282 -0.116448 0.152425 -0.090833 0.179474 0.116184 -0.213054 -0.016447 -0.009637 -0.136338 -0.481707 0.153614 -0.336463 -0.245803 -0.300301 -0.063603 0.236518 -0.158627 0.03404 -0.246466 -0.221702 -0.003906 0.040763 -0.014064 0.11683 0.292331 -0.055344 0.175667 0.074666 0.288071 -0.004159 0.217758 -0.079148 -0.040137 0.060394 -0.393631 0.313212 -0.057444 0.271893 -0.180134 0.037664 -0.18191 -0.046346 -0.136874 0.213354 0.858268 -0.024712 -0.383859 0.065309 0.031093 0.153474 0.060595 0.006583 0.223299 -0.051871 -0.155292 -0.189501 0.060597 -0.287687 0.167861 0.200237 -0.03194 -0.151466 0.212623 0.01753 0.19236 -0.130556 0.109502 0.237003 0.337008 0.225291 -0.347581 0.328316 -0.46051 0.087972 0.009021 0.137045 0.051933 0.236724 0.200326 -0.064863 -0.072631 -0.076231 -0.337678 -0.100889 -0.010989 0.01973 0.128473 0.022512 0.047022 0.120746 0.076374 -0.15536 0.026471 -0.122277 0.123321 -0.011072 0.449583 -0.275149 0.103404 -0.063287 0.075326 -0.013464 0.08728 -0.295205 -0.09873 0.076307 0.178234 0.136956 -0.333689 -0.057067 0.075959 0.544291 0.149491 -0.132613 0.059808 0.084158 0.136935 0.196543 -0.05042 -0.128339 0.106023 -0.20863 0.485642 -0.015134 0.014772 -0.071248 0.42179 -0.375988 -0.424425 -0.029633 -0.017985 -0.444078 -0.136975 -0.162423 0.102977 0.028553 -0.125658 -0.260264 0.086559 -0.052923 -0.067859 0.008614 0.096684 -0.162243 -0.057422 0.218582 -0.355758 -0.088025 -0.107243 0.184851 0.087628 0.033062 0.297417 0.042033 -0.072151 -0.049385 0.451512 -0.103675 -0.014331 -0.430175 -0.10633 0.085689 -0.026841 -0.378281 0.055562 -0.463405 0.160009 -0.040762 -0.217012 0.345543 0.004183 -0.065521 -0.673289 0.20279 -0.030895 -0.191574 0.13603 0.099466 0.002922 -0.006324 0.248119 -0.077765 -0.069942 -0.30022 -0.142626 -0.146235 -0.178506 -0.27046 0.224977 -0.052688 -0.300249 0.213497 -0.0467 0.245984 0.507245 0.015225 0.096423 0.112256 0.163369 0.049612 0.299728 0.325829 -0.116976 -0.13108
U 0.273875 -0.365782 0.118326 0.051722 -0.074905 0.03589 0.015722 0.131806 -0.009438 -1.550806 0.317306 -0.038931 -0.127665 0.214084 0.30658 -0.021151 0.139751 -1.082846 0.286898 0.100471 -0.029424 0.101133 0.140071 0.032692 -0.051909 -0.051921 0.116469 -0.005792 -0.196666 -0.117944 0.117148 -0.155211 0.024983 0.011459 -0.248388 0.089149 0.081612 -0.012864 0.088534 0.282642 -0.066973 -0.005491 -0.049524 0.06134 -0.005169 -0.080524 0.216017 -0.19983 -0.054687 0.014748 0.081619 -0.058752 0.028652 -0.03016 -0.00775 -0.052284 0.032058 -0.022999 -0.027488 0.073652 -0.041331 0.028088 0.053882 -0.385929 -0.192876 0.16291 -0.006961 -0.135055 0.027109 -0.178808 -0.037426 0.00178 -0.187253 0.02263 -0.112052 -0.020342 -0.072548 0.024486 -0.033226 -0.172829 -0.057377 -0.121073 0.182211 0.051164 0.015267 0.254991 0.357584 -0.26061 -0.327903 -0.115564 0.123329 0.02903 0.069256 0.067983 -0.201128 0.25566 -0.089956 0.025945 -0.050528 0.112151 -0.010448 -0.163669 0.139819 0.050949 -0.048552 -0.414529 -0.030958 -0.145962 -0.129533 -0.125519 -0.089117 0.314062 -0.072268 0.013206 -0.075669 0.051015 -0.006105 -0.058606 -0.003103 -0.059666 -0.058163 -0.04091 0.009854 0.145137 0.124309 -0.061277 -0.038337 0.117203 0.013282 0.143566 -0.149624 -0.055458 0.010352 0.038583 -0.177295 -0.028127 -0.028437 0.005894 -0.019869 0.083459 0.891303 0.003382 -0.256279 0.039245 0.012408 0.081364 0.153428 -0.006333 0.030442 0.115909 -0.004897 0.069781 -0.058935 -0.012081 0.150801 0.120777 0.102101 -0.123855 0.048733 0.103436 -0.092847 0.02265 -0.033786 0.189484 0.269291 0.220277 -0.114846 0.110098 -0.275755 0.038674 -0.022513 0.040337 0.12714 0.078481 0.189426 -0.075651 0.010149 -0.040074 -0.219107 -0.00739 -0.066665 -0.023921 0.069806 0.198572 0.24689 -0.069645 0.157555 -0.110255 -0.024015 0.0209 0.259938 0.034183 0.119339 -0.133328 -0.019068 -0.258885 0.107818 0.120224 0.14788 -0.259404 -0.009835 0.273859 0.048595 -0.134144 -0.271578 -0.136451 0.010939 0.047221 0.169392 0.016378 0.160696 0.196381 -0.0349 0.346118 -0.110579 -0.22244 0.155822 -0.287126 0.398288 -0.059891 0.079171 -0.050713 0.166926 -0.220145 -0.055932 -0.121863 -0.041274 -0.124765 -0.097944 -0.26234 0.159634 0.009336 -0.16668 -0.119353 0.13815 0.153087 -0.016195 0.072928 0.095545 -0.105183 -0.106705 -0.096188 -0.112607 -0.221655 -0.098961 0.226685 0.120981 0.123803 0.356592 0.086654 -0.023666 -0.025499 0.045775 0.05039 -0.143447 -0.503885 -0.031646 0.185161 0.027174 -0.063337 -0.13923 -0.295208 0.062855 -0.132467 -0.043691 0.296524 -0.00891 -0.040944 -0.399937 0.075486 -0.140724 0.077413 0.102028 0.233599 0.090292 -0.034906 -0.016368 -0.077832 0.029201 -0.323628 -0.138887 -0.186629 -0.081861 0.027699 0.10707 0.134009 -0.174487 0.196396 -0.212232 0.057642 0.392849 -0.096028 -0.080569 0.004604 0.006661 0.052237 0.110883 0.154188 -0.090635 -0.172499
Î 0.494395 -0.087227 0.018829 -0.062478 0.154674 0.138775 0.373726 -0.039916 0.138751 -1.422261 0.394936 -0.008655 -0.092538 0.217741 0.656147 -0.321968 0.20155 -0.766727 0.28055 0.036702 0.329449 0.27352 -0.042577 0.209911 -0.189821 -0.152415 0.254252 0.016918 -0.385099 0.122617 0.065009 -0.181555 0.339754 0.427716 -0.529275 0.256727 -0.326328 -0.25988 -0.111619 0.130328 -0.265246 -0.200453 -0.493193 0.045666 0.243911 -0.313817 0.370596 0.168445 -0.288817 0.031358 0.092235 0.00959 -0.016575 -0.059252 0.236993 -0.298783 -0.137606 -0.300013 0.434803 0.265998 0.42952 -0.119583 0.031619 -0.040932 -0.405921 0.228514 -0.077155 -0.211678 -0.015323 0.105225 0.078504 -0.20601 -0.39155 0.135214 -0.464325 -0.216365 0.101416 -0.033595 -0.26156 -0.232192 0.116047 -0.052376 -0.304151 0.149206 0.116787 0.095555 0.431017 -0.100546 -0.395353 -0.300062 0.152118 -0.173216 -0.061402 0.12312 -0.495884 0.386276 -0.386772 0.186193 0.190297 0.134367 0.039119 0.090164 -0.04509 -0.05631 0.162678 -0.50809 -0.404581 -0.494993 -0.239689 0.038122 -0.024312 0.215468 -0.336959 -0.019442 -0.249431 0.052628 -0.074039 -0.042672 -0.048041 0.042033 0.092631 -0.267965 -0.075397 0.207499 0.038803 -0.20883 -0.233214 0.556499 0.536874 0.039346 -0.517358 0.128554 0.273053 0.238271 -0.027788 -0.100107 -0.072087 -0.039647 -0.403598 -0.100043 0.978168 -0.019644 -0.248923 -0.047982 0.260958 0.184111 0.215048 0.622758 0.378538 0.219981 0.179089 0.046324 -0.048227 -0.156274 -0.169545 -0.091865 0.040972 -0.698903 0.519363 0.123346 0.097179 -0.045839 0.01258 0.344487 0.258459 0.515647 -0.279745 0.194003 -0.498374 -0.139705 0.196404 0.385865 -0.112581 0.416703 0.091027 -0.345635 0.088166 -0.296312 -0.506123 -0.100415 0.048768 -0.008404 -0.110773 -0.207256 -0.165888 0.427175 0.323663 -0.264643 -0.028832 -0.379832 -0.250377 0.095555 -0.16146 -0.082557 0.076158 -0.266369 -0.097587 -0.107276 0.116233 0.295179 -0.124084 0.441069 0.608344 0.138661 -0.261389 -0.35752 0.143953 -0.158188 0.367328 -0.020109 -0.074909 -0.057404 0.015866 0.717886 -0.169269 -0.216943 0.328452 -0.032173 0.573401 -0.157549 -0.054738 0.140485 0.233924 -0.288479 -0.181225 0.11348 -0.287304 -0.494751 -0.130944 -0.194723 -0.194783 -0.014597 -0.028188 -0.234728 0.139763 0.467617 0.069925 0.15348 -0.043353 0.2801 0.106258 0.009959 0.259759 -0.496116 -0.081584 0.508528 0.180746 -0.176698 0.149149 -0.415865 -0.168329 -0.254821 -0.09633 0.121813 -0.351971 -0.458246 -0.091585 0.173484 0.229195 0.29098 -0.104434 -0.662695 -0.119545 -0.359506 0.262572 0.106392 -0.276933 -0.273839 -0.785823 -0.475724 -0.196086 -0.035734 -0.017015 0.373549 -0.079348 0.00532 0.003231 0.179045 -0.201255 0.126549 -0.216575 -0.045088 -0.003076 -0.067869 0.016228 -0.102151 -0.139963 -0.099859 -0.307691 0.364164 0.430444 -0.220837 -0.184951 -0.277904 0.260489 -0.03294 0.327504 0.271968 0.092181 -0.559858
Ã 0.246128 -0.502858 0.147696 0.152777 -0.193425 0.14864 0.309872 0.183244 -0.240547 -1.540717 0.451218 0.052642 -0.068644 0.042821 0.292996 -0.177622 -0.039844 -0.955019 0.313265 0.278953 0.25309 0.421282 -0.026521 -0.196044 -0.100136 -0.294644 0.021514 0.24457 -0.236984 0.010214 0.109441 -0.47603 0.353885 0.206981 -0.328664 0.146149 -0.032884 -0.111919 0.072788 0.269594 -0.012583 -0.26128 -0.410201 0.192902 0.01694 -0.080054 0.275185 -0.281047 -0.125235 0.142869 -0.054971 0.112322 0.102098 -0.049568 0.290331 -0.0638 0.442928 -0.383072 0.481274 0.116284 -0.004363 -0.008894 -0.076935 -0.228091 -0.369611 0.460756 0.13742 -0.24353 -0.142293 -0.147775 -0.383865 -0.054674 -0.365682 -0.136238 -0.250046 -0.376148 -0.200101 0.014841 0.091971 -0.187933 0.04134 -0.113362 0.039626 0.090735 -0.088381 0.216571 0.628799 -0.41624 -0.502254 -0.262473 -0.071955 -0.29285 0.162584 0.264119 -0.288324 0.637095 -0.311384 -0.003788 0.015844 0.01811 0.069836 0.15589 -0.16667 -0.372358 -0.205925 -0.5047 -0.242201 -0.202053 -0.301257 0.038667 0.066202 0.344742 -0.216936 0.12537 0.173068 0.180626 0.015797 -0.052088 0.292554 -0.256217 0.250079 -0.118732 -0.096062 0.113705 -0.172941 0.092836 0.296726 0.179339 0.372046 0.230276 -0.300034 0.072808 0.281971 0.13709 0.199441 0.068034 -0.221766 -0.00251 -0.214605 -0.091513 0.640783 0.013714 -0.313745 -0.146144 0.014642 0.017336 0.044891 0.403254 -0.102727 0.203718 0.020388 -0.003858 -0.224523 -0.03038 -0.246503 0.305697 -0.196969 -0.370394 0.452601 -0.015084 -0.077958 0.280213 -0.10978 0.566613 0.553828 0.374635 -0.169982 -0.105729 -0.303062 -0.158118 -0.35716 0.085032 0.041107 0.318893 0.063409 -0.193216 -0.05993 -0.222805 -0.371609 0.069666 -0.07276 -0.031032 0.194951 0.28115 -0.068516 0.373323 0.200045 -0.226059 0.207374 -0.103999 0.237705 -0.207784 -0.021738 -0.081089 0.169779 -0.281605 0.282524 0.346105 0.286924 -0.001934 0.233766 0.201413 0.231838 -0.000182 -0.403529 -0.085649 0.265586 -0.011291 0.184356 0.087988 0.206659 0.36499 -0.11695 0.275544 0.081224 0.296185 0.241364 0.317638 0.409496 -0.058677 0.246098 0.039323 0.070841 0.003943 -0.267967 -0.154258 -0.127132 -0.462812 -0.179324 -0.180045 0.067617 -0.085719 -0.394287 -0.204874 -0.002109 -0.048906 0.091488 -0.095577 -0.018319 -0.00674 0.012168 0.088485 -0.05456 -0.131683 0.080555 0.468291 0.293106 0.276263 0.091529 -0.05653 -0.072374 -0.020067 0.06447 0.323689 -0.230146 -0.242727 -0.309379 0.366181 0.112973 -0.024737 -0.139528 -0.328617 -0.031696 -0.578645 -0.07647 0.329784 -0.247105 -0.196501 -0.515222 -0.319692 -0.296538 0.103631 -0.151441 0.384913 -0.365212 0.020296 -0.104662 -0.195994 -0.010983 0.13212 -0.447403 -0.138591 -0.291205 -0.153311 0.126391 -0.234049 -0.070048 0.047125 -0.262865 0.330292 0.329737 -0.368843 -0.326348 -0.069918 0.492468 -0.209598 0.399532 0.106919 0.279449 -0.30504
½ 0.27011 0.63347 0.20156 0.6912 0.22575 -0.065027 -0.91193 0.17836 0.36135 0.36017 -0.51377 0.86759 -0.12174 0.29157 0.14196 -0.028739 -0.48188 1.7138 -0.025851 0.13306 0.13178 0.025467 0.008539 0.17261 0.089733 -0.79546 -0.1425 0.41688 0.26171 -0.13128 -0.31001 -0.42759 0.47983 -0.26432 -0.052143 -0.037724 -0.1214 -0.07082 0.1605 0.32982 0.011137 -0.46827 -0.71606 -0.39138 0.007603 0.32167 -0.32091 0.32531 -0.039829 -0.2849 -0.04865 -0.17704 0.34444 -0.20678 0.41561 0.13114 0.23309 0.25419 0.59936 0.27027 0.48844 -0.14334 0.62931 0.4548 -0.75867 0.17965 0.28654 0.11822 -0.39609 0.36339 -0.097017 -0.051072 0.055066 0.26121 -0.51423 -0.29284 0.21598 0.25312 0.12105 -0.37718 0.091423 -0.11711 -0.49651 0.15194 -0.34424 0.23303 0.55991 0.20678 0.1242 -0.11774 -0.23062 -0.62933 0.17824 -0.18523 -0.19518 0.47977 -0.0942 0.30239 -0.26713 -0.41358 0.45544 -0.037681 -0.52449 -0.65892 -0.54149 0.38755 -0.094644 -0.16105 0.372 0.3424 -0.074478 -0.1788 0.07769 0.045332 0.38719 0.5038 0.005388 -0.20962 0.65888 -0.41135 0.39009 -0.19192 0.092949 -0.3379 -0.34793 0.49289 0.25052 0.32293 0.1881 0.31373 -0.53962 0.54039 0.1424 0.31817 -0.78536 -0.15437 0.26901 0.10385 -0.16864 -0.35856 -0.71348 -0.012688 0.33932 0.23846 0.54238 -0.50368 -0.73905 0.42661 0.2699 0.11475 0.26888 -0.11969 -0.13761 0.24373 -0.90818 0.18024 -0.44689 -0.35456 0.28745 0.31735 0.21977 0.12875 -0.42842 0.47165 -0.16014 0.29826 -0.43011 -0.68436 -0.002857 -0.27467 0.090153 -0.62863 -0.49074 0.23188 -0.6636 -0.38403 0.23944 -0.28524 0.48239 -0.48037 -0.49842 0.066345 0.35055 -0.18794 -0.51966 0.50049 -0.14362 -0.35239 -0.15435 0.2143 -0.28286 0.42954 0.078585 0.16765 0.27868 -0.5521 0.42811 -0.40697 -1.0059 0.1293 1.1001 -0.24657 -0.18974 0.32861 -0.10897 0.19484 0.46972 -0.26908 0.006885 0.56308 0.3251 -0.42504 -0.04043 0.041087 -0.20607 0.74667 0.015397 -0.29098 -0.037484 0.33459 0.10058 0.26519 0.112 0.091996 0.084815 0.03916 -0.044454 -0.2344 -0.26959 0.59354 -0.19652 -0.50364 -0.35177 0.18803 -0.048348 -0.36522 0.26898 -0.43115 -0.52371 0.42239 -0.17193 -0.10697 -0.19093 0.37145 0.017047 0.15092 0.22008 0.0194 -0.3973 0.076842 0.11253 -0.10776 0.14142 0.064424 -0.51228 0.93001 -0.12288 -0.35652 0.099353 0.002459 0.48443 -0.22672 0.29259 -0.66401 -0.56299 -0.12823 -0.4775 -0.35198 -0.72824 -0.78349 0.51598 -0.026029 -0.19118 -0.1604 -0.82445 0.17423 -0.15433 0.10826 -0.24762 0.1768 0.38222 -0.036172 -0.35376 -0.008637 -0.18011 0.059994 0.11523 -0.29277 0.056836 0.40148 0.51528 -0.073832 -0.5173 0.030901 -0.10602 0.43193 -0.13729 -0.45682 0.57832 -0.55453
Ï -0.081359 -0.120408 -0.230535 -0.162543 -0.188834 0.326108 -0.048136 0.054737 -0.040588 -1.660133 0.26689 -0.091107 0.047093 0.534075 0.586227 -0.2704 0.11052 -0.682585 0.360337 0.08443 0.212597 0.12405 0.29634 0.099153 0.002956 -0.146307 0.289059 0.263167 0.252617 -0.242625 -0.114734 -0.471473 0.19005 0.319677 -0.254253 0.332209 0.366194 -0.214873 0.429117 0.4721 -0.246615 -0.083789 -0.083593 0.209078 -0.187379 -0.462883 0.215373 0.053947 -0.179087 0.080609 -0.279499 -0.33265 -0.421605 -0.005751 0.438003 -0.665653 0.412423 -0.24054 0.276128 0.106653 -0.080003 -0.365835 0.308447 -0.261807 -0.690043 0.204833 -0.24024 0.247082 0.06663 -0.12865 -0.268198 -0.362597 -0.449157 0.221524 0.153186 -0.369298 0.210488 0.237313 -0.694307 0.175527 -0.00634 -0.478686 0.306114 -0.096154 0.263647 0.151322 0.345463 -0.532288 -0.759577 -0.019667 0.14027 -0.40009 0.079988 0.089073 -0.769097 0.43901 -0.44328 0.179105 -0.072835 -0.159488 -0.12328 0.22631 0.280569 -0.465933 -0.313239 -0.627752 -0.068876 -0.374598 -0.17651 -0.18582 0.030216 0.362823 -0.219463 -0.270846 -0.20177 0.224744 -0.00595 -0.45069 0.102177 0.36302 0.07044 -0.024188 0.032249 0.166637 0.08286 -0.050303 0.517487 0.428393 0.333467 0.405272 -0.319481 0.143789 0.090503 0.327151 0.15585 -0.078059 0.104052 -0.302667 0.091647 0.255465 0.9038 -0.215783 -0.515993 -0.116333 0.117325 0.012952 0.074005 0.159823 0.033213 0.161823 0.134583 -0.207313 -0.583127 0.273903 0.215167 0.075132 0.318853 -0.312613 0.290023 0.028867 -0.27651 0.078137 0.324394 0.20256 0.592677 0.125873 -0.192495 -0.329123 -0.575473 0.40758 -0.42235 0.110987 -0.259493 0.362595 0.412623 -0.27764 0.08117 0.453227 -0.333846 -0.056185 -0.35032 0.183491 0.174383 0.282464 -0.049834 0.386513 0.118397 -0.478467 -0.140025 -0.303851 0.131801 -0.30741 0.32636 -0.493827 0.218977 -0.39482 0.214387 0.232823 -0.028589 -0.06066 0.401595 0.143457 0.357427 -0.025867 -0.16077 -0.174877 0.31164 -0.044424 -0.159409 0.014247 0.051495 -0.16912 0.192453 0.501503 -0.194362 -0.013345 0.195673 -0.06221 0.374032 -0.013687 0.162617 -0.034685 -0.131119 -0.332709 -0.199194 0.025683 0.32183 -0.45081 -0.211637 -0.21685 0.15863 0.067278 -0.205677 0.064507 0.30127 0.098896 -0.122743 -0.147193 -0.059431 -0.61906 -0.120117 -0.357027 0.186994 -0.485177 -0.160264 0.342139 0.53088 0.016054 0.04321 0.122191 -0.31426 -0.31213 -0.003201 -0.047439 -0.47065 -0.369171 -0.145095 0.049557 -0.074497 0.034647 -0.00627 -0.293601 -0.01721 -0.348805 0.32356 0.445245 -0.10256 0.02074 -0.421979 -0.044405 -0.30722 0.26577 -0.48654 0.461707 -0.058724 -0.299947 -0.100534 0.318603 -0.287213 -0.105585 -0.187653 0.113718 -0.067047 -0.237963 0.08269 0.010141 -0.321673 0.346847 -0.45534 0.02993 0.52846 -0.045554 -0.073407 -0.105763 0.58558 0.04857 0.141377 0.027251 -0.105787 -0.619147
Ö 0.345014 -0.29538 0.187007 0.111142 -0.062467 0.195887 -0.023317 -0.038341 -0.074404 -1.463714 0.223871 -0.091578 -0.22338 0.345014 0.364391 0.004397 0.116217 -1.295481 0.298895 0.093471 0.036511 0.115313 0.101175 0.07989 -0.096792 0.021547 0.111166 0.05121 -0.206334 -0.094008 0.038738 -0.244749 -0.041988 0.011749 -0.192493 0.261053 -0.045789 0.058272 0.186105 0.173279 -0.181728 -0.153853 -0.37792 0.178317 -0.192493 -0.07659 0.156324 -0.274928 0.048692 -0.090717 0.085718 -0.030754 -0.016669 0.015176 0.062605 -0.207451 0.050196 -0.140066 0.001349 0.222802 -0.013833 -0.053858 0.233128 -0.533669 -0.324371 0.249187 0.157489 -0.330149 0.029134 -0.27971 -0.264886 -0.034265 -0.241921 -0.072735 -0.094353 -0.084844 0.003848 0.183574 -0.158062 -0.239483 0.127213 -0.161822 0.282112 0.153881 0.050675 0.206198 0.403932 -0.259127 -0.397978 -0.11087 0.213326 -0.21845 0.218515 0.226885 -0.19068 0.301503 -0.157144 0.01483 -0.044281 0.308441 0.039017 -0.121559 0.102587 0.047865 0.059273 -0.458388 -0.065681 -0.249725 0.010116 -0.261976 -0.11198 0.259433 -0.268969 0.024836 -0.196277 -0.097304 -0.055938 -0.063191 -0.059335 -0.006382 0.077214 -0.077491 0.22154 0.119768 0.102799 0.083335 0.062676 0.054938 0.008625 0.178333 -0.353734 0.033731 0.040338 0.156342 -0.049081 -0.053163 0.007602 0.01649 -0.074086 0.151184 0.911334 -0.026587 -0.415465 0.02419 0.075065 0.153533 0.099438 -0.026038 0.177192 0.05915 -0.086139 -0.144996 -0.114954 -0.140662 0.095213 0.240445 -0.025932 -0.26025 0.022642 0.18404 0.00109 -0.105029 0.094645 0.186269 0.22982 0.1226 -0.318095 0.247318 -0.454712 0.147023 -0.051414 -0.054423 0.002132 0.213551 0.131452 -0.241407 0.047904 -0.098264 -0.243356 -0.037194 0.035065 -0.00235 -0.030277 0.147459 0.050736 0.128186 0.030101 -0.123392 -0.088006 0.005082 0.320067 0.045036 0.231384 -0.164578 0.084176 -0.086968 0.189716 0.14795 0.108099 -0.190832 -0.235678 0.178498 0.150474 -0.131811 -0.259279 -0.07317 0.112975 0.301831 0.008173 -0.110686 0.169124 0.281852 -0.054594 0.331821 -0.025826 -0.158189 0.312069 -0.164132 0.374511 -0.012413 0.055426 -0.04614 0.406563 -0.211669 -0.262662 0.011303 0.144418 -0.31226 0.059639 -0.161998 0.091881 0.042296 -0.314793 -0.380572 0.137003 0.179499 -0.123016 -0.013501 0.112876 -0.142004 -0.147254 0.110926 -0.195518 -0.242498 0.050422 0.20835 0.248798 0.009754 0.393639 0.076284 0.112804 0.144008 0.238488 -0.0405 -0.154778 -0.532836 -0.09835 0.318668 0.054194 -0.180899 -0.096338 -0.411227 0.117946 -0.147981 -0.100637 0.353764 -0.052566 -0.246121 -0.748966 0.110782 -0.005208 -0.098657 0.137546 0.288953 0.115478 0.027604 0.079366 -0.045659 0.117171 -0.368699 -0.110662 -0.321987 -0.134094 -0.015505 0.053802 0.029288 -0.210026 0.291591 -0.22496 0.239287 0.329903 0.006987 0.014237 0.009903 0.359956 0.005339 0.401075 0.195487 0.145316 -0.079872
w 0.233774 -0.281845 0.125783 0.034102 -0.12983 0.107371 0.060108 0.086725 -0.031898 -1.255429 0.390206 -0.102429 -0.083081 0.170905 0.226195 0.051731 0.199184 -1.156594 0.347684 0.064197 0.042619 0.049045 0.129419 0.01025 -0.102896 -0.046055 0.138921 -0.014303 -0.123899 0.003441 0.140843 -0.19584 0.048562 -0.001997 -0.219317 0.105922 -0.01642 -0.006519 0.06453 0.160079 -0.162004 -0.101744 -0.138013 -0.011629 -0.039519 -0.041214 0.167756 -0.189371 -0.073713 -0.003549 0.055477 -0.006786 0.053155 -0.016054 0.024464 -0.085736 0.007635 -0.023575 0.02842 0.08824 -0.054747 0.040264 0.019291 -0.376301 -0.131608 0.185574 -0.034168 -0.094828 -0.032045 -0.207173 -0.006922 -0.054544 -0.153791 -0.009264 -0.09209 -0.081729 -0.107816 0.126893 -0.03622 -0.153886 -0.071816 -0.047274 0.109302 0.088664 -0.020147 0.277139 0.508626 0.000731 -0.299451 -0.142036 0.074813 -0.099278 0.038749 0.17496 -0.078058 0.379905 -0.042913 -0.053931 -0.048692 0.07181 -0.012811 -0.065233 0.130365 0.054026 -0.030956 -0.676162 -0.010124 -0.146242 -0.14938 -0.128204 -0.106777 0.226619 -0.12168 0.061429 -0.055714 0.10608 -0.033888 -0.01722 0.046512 -0.051667 -0.071082 -0.032708 0.038855 0.140573 0.008652 -0.051383 -0.092848 -0.021117 0.117876 0.064292 -0.149604 -0.035124 0.021731 0.10871 -0.096752 -0.056481 0.01367 -0.020041 -0.104855 0.035895 0.637093 -0.047028 -0.250373 -0.063338 0.034805 0.066173 0.14226 -0.026406 -0.093871 0.16204 2.3e-05 -0.063322 -0.011678 -0.011467 0.083623 0.13384 0.156995 -0.134159 0.063637 0.036382 -0.020721 0.038761 -0.007883 0.270436 0.351423 0.158822 -0.14256 0.121771 -0.187896 -0.067049 -0.018923 0.08259 0.185911 0.118562 0.115969 -0.042499 -0.033722 -0.077054 -0.270554 -0.02434 -0.039873 -0.026487 0.093259 0.136343 0.241912 -0.012874 0.174317 -0.162026 -0.022293 0.003536 0.224223 -0.002753 0.151716 -0.136836 0.061583 -0.108573 0.220613 0.138828 0.295099 -0.294833 -0.079146 0.137603 0.039361 -0.096767 -0.239627 -0.024715 0.003068 0.06638 0.127269 0.009314 0.105552 0.170077 -0.006358 0.260272 -0.161699 -0.258044 0.142083 -0.013123 0.493313 -0.023377 0.07559 -0.129804 0.220209 -0.137141 -0.10166 -0.184314 -0.15452 -0.204477 -0.140233 -0.259683 0.135653 -0.038243 -0.112779 -0.056921 0.049254 0.074477 0.024651 0.099927 0.148173 -0.140555 -0.050421 -0.020765 -0.120899 -0.093593 -0.06028 0.155019 0.095901 0.102013 0.311707 -0.020255 -0.028029 -0.054387 0.022166 0.071688 -0.065732 -0.507101 -0.025408 0.141166 -0.053838 -0.130265 -0.130083 -0.240606 -0.014127 -0.205264 -0.010774 0.291157 0.006159 0.004211 -0.427516 0.20221 -0.162282 -0.03941 0.152865 0.232522 0.045879 0.048688 0.010541 -0.032495 0.050824 -0.305436 -0.23684 -0.170822 -0.186671 -0.054333 0.096932 0.147233 -0.137037 0.137224 -0.164452 0.008261 0.332642 -0.135649 -0.032994 0.014942 0.047722 0.000638 0.053899 0.178318 -0.054301 -0.1097
¢ -0.3883 0.04852 0.31859 0.46279 0.005723 0.027318 -0.091534 -0.063969 -0.17483 0.34191 -0.092824 0.45609 0.14111 0.13068 0.056047 -0.58557 -0.23786 1.485 -0.20645 0.45341 0.33457 0.71744 -0.15041 -0.28184 0.33367 -0.5026 -0.18533 0.44278 -0.15744 -0.01989 -0.18396 -0.22985 0.17646 -0.085887 -0.12334 0.16911 0.023314 -0.20498 -0.10583 0.43976 0.22703 -0.17024 -0.39809 0.002572 -0.26163 -0.063095 -0.26419 0.1647 -0.40566 -0.044189 0.28699 0.39389 0.052258 -0.070717 0.3161 -0.40004 0.034754 -0.23722 0.70711 0.050884 0.089447 -0.23603 0.12301 0.046407 -0.31889 0.31892 0.48203 -0.070582 0.22429 0.072378 -0.57849 0.066081 -0.015701 -0.003227 -0.30557 -0.46461 0.15222 -0.15333 0.23075 0.21339 0.28345 0.053234 -0.20863 0.028481 -0.070929 -0.20967 -0.13073 -0.083733 0.31605 -0.5031 -0.19216 -0.20505 0.20542 0.45991 0.011459 0.29281 -0.067705 -0.02235 -0.09733 -0.29793 0.37885 0.31844 -0.54628 -0.49683 0.013901 0.5678 -0.12075 0.12192 -0.26043 0.31533 0.43303 0.28211 -0.002725 0.13724 0.29091 0.46476 0.19287 -0.23298 0.17481 -0.24035 0.76385 -0.27262 -0.26229 -0.29489 -0.93895 0.062751 0.19793 0.34607 0.20152 0.049204 -0.30342 0.00341 0.4028 0.40731 0.16129 0.21507 -0.22326 0.11271 -0.5078 0.13508 -0.13347 0.099864 0.50414 0.16522 -0.48281 -0.22283 -0.002314 0.65952 -0.15941 -0.19037 0.32133 0.28417 -0.2425 0.26894 0.062948 0.35817 -0.051258 -0.28039 0.89644 -0.42622 -0.27663 0.32137 -0.32785 0.16382 0.019576 0.21312 -0.007697 -0.4226 -0.1713 0.12199 -0.16859 0.12376 0.077424 0.35602 -0.21662 -0.50457 0.083263 -0.45343 0.1828 -0.035324 -0.14841 0.066187 -0.10853 -0.17565 -0.40276 0.81767 0.12108 -0.19855 0.14551 -0.068295 -0.2398 -0.46962 0.089369 -0.087318 0.47436 -0.52934 0.21812 -0.016218 -0.25242 0.04056 0.99559 -0.18996 0.45247 0.30897 -0.059105 0.19522 0.24875 -0.48385 0.29573 0.24344 0.15339 0.008263 -0.33768 0.20724 0.33099 0.66359 0.041547 0.16435 -0.17956 -0.12968 -0.029411 -0.078699 -0.049917 0.12107 -0.050675 -0.32976 0.12636 -0.069662 -0.14728 0.38901 -0.09146 -0.18387 -0.23241 0.16305 -0.19136 0.11837 0.27148 -0.20305 -0.36748 0.30763 -0.34801 0.17351 0.28918 0.056429 0.20938 0.17375 0.056724 0.25033 -0.2928 0.37357 0.053518 0.32803 0.087277 0.14874 -0.15975 0.79254 -0.44568 -0.17271 -0.13896 -0.00184 0.093864 0.028736 0.22798 -0.92912 -0.43071 0.14146 -0.17179 0.080847 0.44103 -0.68361 0.042091 -0.11586 -0.49684 -0.12351 -0.89126 0.048724 0.035539 0.20451 -0.21363 0.33179 -0.28565 0.084401 -0.2249 0.034675 -0.24306 -0.27546 -0.022952 0.039226 -0.58603 0.72066 -0.052827 0.11869 -0.37396 -0.22427 0.087065 -0.40451 0.1942 -0.041968 0.90672 -0.37669
8 0.146808 -0.30308 0.273265 -0.02031 -0.271215 0.09482 0.063491 0.020512 0.005035 -1.568682 0.488405 0.017505 -0.213946 0.147993 0.213918 0.033633 0.121454 -1.098999 0.397455 0.097241 0.013171 0.162577 0.24712 0.108724 -0.000496 0.026046 0.174948 -0.107492 -0.141526 0.116075 0.14129 -0.1738 0.042377 -0.03145 -0.276776 0.116717 -0.002711 0.120164 0.112422 0.429137 -0.175104 -0.283044 -0.093598 0.159076 -0.074339 -0.034537 0.274945 -0.054183 -0.068728 0.10075 0.102496 0.160232 -0.016956 0.012821 0.106725 -0.004428 0.046089 0.061078 0.111119 0.155764 -0.071093 -0.111358 -0.06255 -0.586703 -0.374247 0.175236 0.099002 -0.139136 -0.107723 -0.339361 -0.06074 -0.159876 -0.299807 0.025667 -0.009049 0.025321 -0.008623 0.250737 -0.076825 -0.236443 -0.0988 -0.094741 0.207414 0.006464 -0.021555 0.373528 0.728908 -0.03422 -0.391805 -0.157151 0.188389 -0.193443 0.060032 0.128635 -0.080174 0.302332 -0.127296 -0.014318 -0.090419 0.054843 -0.000317 -0.098191 0.254008 0.190688 0.002885 -0.398395 -0.034586 -0.194817 -0.069394 -0.034757 0.029957 0.205941 -0.122468 0.096331 -0.110624 0.15022 -0.038625 -0.149979 -0.000747 -0.245371 -0.195562 0.067989 -0.074886 0.074195 -0.008408 -0.050567 -0.144242 0.159488 0.030347 0.047966 -0.017311 -0.037702 0.060556 0.041519 -0.281765 -0.072148 0.035568 0.151008 -0.146416 0.08249 0.909636 0.114206 -0.193661 0.012075 -0.020138 0.210638 0.095473 -0.12031 -0.02442 0.129125 -0.015068 -0.139038 -0.028111 -0.001274 0.091497 0.189319 0.24095 -0.075754 0.107592 0.201965 -0.05249 -0.036553 0.031541 0.11473 0.19115 0.317798 -0.230684 0.131763 -0.347053 -0.027312 0.071816 -0.014938 0.098176 0.200302 0.179127 -0.190105 -0.042489 -0.183493 -0.256112 -0.038869 0.019664 0.079723 0.231244 0.19005 0.280512 -0.060825 0.21613 -0.019089 -0.08628 0.109365 0.279792 0.149861 0.199535 -0.27503 -0.050676 -0.294272 0.05158 0.16705 0.234004 -0.249588 0.002371 0.157577 0.095791 -0.136094 -0.314569 -0.128338 -0.105967 0.069299 0.111969 0.044811 0.252093 0.052108 0.022801 0.246065 -0.059562 -0.217079 0.170675 -0.125626 0.410542 0.051763 0.17477 -0.16219 0.195668 -0.257048 -0.067044 -0.06701 0.029664 -0.263606 -0.030954 -0.362271 0.161398 -0.005332 -0.204916 -0.109149 0.02146 0.17096 0.027822 0.099825 0.217361 -0.268119 -0.100975 -0.091358 -0.089759 -0.188118 -0.201713 0.190483 0.125353 0.132828 0.40057 -0.024146 -0.134218 0.135552 0.092465 0.147697 -0.037727 -0.515998 -0.122589 0.11465 -0.055923 -0.119134 -0.226073 -0.244831 -0.008401 -0.156915 -0.14783 0.157448 0.049453 -0.096904 -0.626962 0.255129 -0.223466 0.019086 0.138979 0.343541 -0.092135 -0.006647 -0.034394 -0.220144 -0.183951 -0.29772 -0.329087 -0.177843 -0.056226 -0.058799 0.287281 0.136283 -0.21185 0.146488 -0.224818 0.281525 0.494466 -0.073013 -0.142564 0.119618 -0.101574 0.05801 0.070393 0.260456 -0.073825 -0.199545
Y 0.284765 -0.320978 0.056374 0.021237 -0.060784 0.05542 0.023351 0.096119 0.000526 -1.516466 0.366678 0.001102 -0.130873 0.239319 0.300219 -0.001938 0.170142 -1.173696 0.271911 0.106899 -0.006933 0.06287 0.127691 0.02306 -0.076526 -0.045451 0.163266 -0.00798 -0.169294 -0.138542 0.124433 -0.109296 0.073798 0.01013 -0.262195 0.072605 0.083992 0.015345 0.10496 0.226102 -0.127722 -0.020515 -0.082858 0.051711 0.028987 -0.094267 0.180018 -0.227136 -0.006352 0.018596 0.081483 -0.070881 0.017767 0.010975 0.022123 -0.052917 0.033795 -0.010574 -0.031049 0.033562 -0.06861 -0.012931 0.024823 -0.376216 -0.154242 0.133773 -0.044585 -0.110493 0.068332 -0.191256 -0.051589 0.025108 -0.173215 0.028394 -0.100363 -0.000335 -0.036356 0.009676 -0.027488 -0.188994 -0.110833 -0.128978 0.179364 0.061274 0.035776 0.262129 0.415737 -0.309865 -0.31106 -0.101178 0.13981 0.050292 0.05512 0.113498 -0.149503 0.289548 -0.076847 -0.045354 -0.060622 0.149031 0.02568 -0.157315 0.113718 -0.001538 -0.05267 -0.405371 -0.022478 -0.173029 -0.117525 -0.130381 -0.07124 0.299705 -0.047814 0.04705 -0.068115 0.021379 -0.010191 -0.059618 0.040585 -0.082265 -0.077271 -0.020954 0.013254 0.143032 0.167201 -0.003127 -0.035594 0.064562 -0.007952 0.130591 -0.15037 -0.076586 0.048292 0.041483 -0.173778 -0.052264 -0.008589 0.020523 -0.050586 0.101517 0.813032 0.034954 -0.278692 0.023697 0.031605 0.099592 0.145894 0.024275 0.04265 0.070213 -0.026527 0.089454 -0.029949 -0.039116 0.143736 0.163726 0.131371 -0.143718 0.019379 0.086324 -0.093459 -0.00996 -0.043809 0.214953 0.285558 0.24107 -0.042474 0.129781 -0.246487 0.041996 -0.013237 0.042142 0.142124 0.025455 0.14335 -0.100875 0.031267 -0.050799 -0.22052 -0.021598 -0.055488 -0.02897 0.086217 0.18156 0.26256 -0.068741 0.185852 -0.122214 -0.031322 0.009999 0.271008 0.030817 0.12988 -0.162969 -0.00766 -0.274679 0.115392 0.104653 0.160467 -0.247052 -0.041297 0.261044 0.016137 -0.146498 -0.284316 -0.158324 0.018403 0.061298 0.176387 -0.010915 0.175751 0.165591 -0.053065 0.319985 -0.12139 -0.203253 0.208645 -0.293727 0.450574 -0.061983 0.086962 -0.049433 0.237233 -0.215355 -0.091213 -0.113913 -0.041945 -0.10792 -0.148327 -0.290008 0.13699 -0.004714 -0.178575 -0.108329 0.107431 0.168259 0.034933 0.058903 0.060394 -0.136757 -0.11235 -0.11529 -0.098094 -0.1973 -0.082249 0.23038 0.091081 0.079016 0.335771 0.090018 -0.027456 -0.047222 0.063396 0.076313 -0.126648 -0.519591 -0.022447 0.177477 0.020047 -0.053493 -0.128636 -0.308476 0.057739 -0.11755 -0.082736 0.337845 -0.016814 -0.012447 -0.416045 0.098467 -0.204476 0.050049 0.10101 0.278047 0.095911 -0.054209 0.017483 -0.087571 0.02534 -0.308433 -0.14826 -0.180658 -0.106354 0.026312 0.103389 0.150606 -0.149945 0.187251 -0.241159 0.062904 0.388466 -0.088514 -0.092127 0.022356 0.046258 -0.00642 0.08092 0.16444 -0.068935 -0.15851
y 0.239696 -0.272422 0.09878 0.022524 -0.128455 0.103556 0.047635 0.071589 -0.065 -1.239889 0.43631 -0.091995 -0.065986 0.189348 0.231842 0.023899 0.199487 -1.219618 0.308622 0.060774 0.021609 0.055419 0.095655 0.001523 -0.103871 -0.027463 0.146011 -0.03915 -0.121299 -0.01992 0.134606 -0.172803 0.081346 -0.00563 -0.234401 0.078947 -0.018726 -0.029376 0.034535 0.132058 -0.123925 -0.093387 -0.163732 0.016494 -0.02608 -0.043476 0.150151 -0.195435 -0.06967 0.018968 0.065434 -0.003041 0.036589 -0.018592 0.060545 -0.057096 -0.002534 -0.019297 -0.012965 0.088744 -0.011193 0.026839 -0.017008 -0.397729 -0.13194 0.140135 -0.039861 -0.086888 -0.021788 -0.230268 -0.026001 -0.00855 -0.173746 0.008663 -0.097468 -0.111102 -0.095245 0.119864 -0.055017 -0.136276 -0.052329 -0.060395 0.10275 0.102806 0.001991 0.233452 0.505728 -0.048573 -0.320348 -0.143853 0.089279 -0.083485 0.04597 0.169453 -0.056074 0.403498 -0.033307 -0.062781 -0.075001 0.074338 0.019947 -0.072048 0.090208 0.045809 -0.034756 -0.691028 -0.036452 -0.1322 -0.152863 -0.144042 -0.113524 0.260432 -0.156707 0.029675 -0.080271 0.056557 -0.035358 -0.007016 0.051149 -0.04251 -0.05388 -0.02266 0.033909 0.154266 0.041957 -0.0187 -0.089449 -0.020134 0.098216 0.094483 -0.129803 -0.028622 0.04422 0.121934 -0.096103 -0.067256 0.015352 -0.01746 -0.098485 0.046346 0.686363 -0.024679 -0.279881 -0.046674 0.008912 0.091588 0.157829 -0.017012 -0.029456 0.146444 0.011755 -0.054269 -0.001308 -0.039048 0.085476 0.135668 0.17735 -0.161363 0.025787 0.027552 -0.047611 0.035803 0.023016 0.269618 0.346984 0.125363 -0.131754 0.162499 -0.179196 -0.063799 0.01247 0.072943 0.203572 0.117456 0.087262 -0.081245 -0.06524 -0.090526 -0.290767 -0.018792 -0.038825 -0.013132 0.078983 0.136499 0.211384 -0.018417 0.178212 -0.131518 -0.02468 -0.012898 0.223572 -0.001276 0.116634 -0.127304 0.037834 -0.112003 0.209315 0.143345 0.284338 -0.274844 -0.115955 0.156959 0.032118 -0.085079 -0.232946 -0.03607 -0.022053 0.088062 0.11723 0.019028 0.07811 0.19735 -0.01518 0.195023 -0.174671 -0.243302 0.142098 -0.006619 0.524651 -0.044931 0.052525 -0.081808 0.201814 -0.179387 -0.100835 -0.144001 -0.109012 -0.154826 -0.133001 -0.272373 0.110227 -0.020355 -0.14478 -0.047489 0.020968 0.106693 0.024223 0.094875 0.147907 -0.124998 -0.059282 -0.000718 -0.114803 -0.068705 -0.058351 0.147101 0.058163 0.061478 0.318888 -0.022898 -0.043735 -0.055466 0.044721 0.08127 -0.055637 -0.50305 -0.011791 0.112738 -0.039725 -0.11011 -0.145313 -0.236039 -0.046859 -0.174501 -0.029927 0.336271 -0.018572 0.002166 -0.422318 0.169171 -0.12945 -0.077908 0.134393 0.247666 0.029187 0.026158 0.021679 -0.010248 0.074249 -0.268763 -0.216854 -0.162043 -0.159009 -0.07538 0.086734 0.137583 -0.08737 0.130443 -0.189211 0.02831 0.341753 -0.120978 -0.025571 0.009541 0.064312 7.2e-05 0.046385 0.197519 -0.075066 -0.113583
ó 0.455999 -0.485043 0.138912 -0.05138 -0.026465 -0.039842 0.198156 0.013518 -0.171227 -1.570026 0.330298 -0.082111 -0.150332 0.191544 0.247099 0.026372 0.159027 -1.095378 0.46787 -0.039325 0.143217 0.061599 0.199369 0.130041 -0.105607 -0.065557 0.139332 0.057111 -0.025598 -0.094889 0.333717 -0.264344 0.019837 -0.099873 -0.433525 0.249115 -0.028086 -0.067811 0.23464 -0.082418 -0.184181 -0.034558 0.000725 0.178906 0.017415 -0.197315 0.023315 -0.121103 0.026294 0.052545 0.02061 0.115064 0.345606 0.061878 -0.001302 -0.021729 0.098514 0.103838 0.077415 0.210609 0.05855 0.145125 0.084375 -0.484912 0.00262 0.128579 0.303024 -0.344358 -0.118167 -0.177273 -0.106319 -0.067799 -0.447836 0.033609 -0.002488 -0.13833 0.025685 0.064165 0.064962 -0.10891 0.055549 -0.103064 0.10755 0.029588 -0.128232 0.393713 0.422718 -0.103977 -0.490341 -0.12396 0.369239 -0.020328 0.141297 -0.028496 -0.253095 0.451398 0.046492 -0.012027 0.079004 0.099349 -0.20164 0.011564 0.102828 0.079178 0.040147 -0.533971 -0.070602 -0.295915 -0.031618 -0.141794 -0.066277 0.334802 -0.337462 -0.067572 0.007186 -0.111025 -0.137435 -0.224119 0.067335 -0.08258 -0.037325 -0.216539 0.106543 0.245364 -0.195294 0.008593 0.125063 0.163304 0.271078 0.09575 -0.346532 0.158929 0.11916 0.220422 -0.050107 0.138987 -0.223698 0.069822 -0.163382 0.239425 0.814446 -0.007109 -0.444007 0.018416 0.02945 0.019202 0.396405 -0.136408 0.018988 0.127709 0.129578 -0.30346 0.189415 -0.067786 0.095239 0.175187 -0.018408 -0.46828 0.126326 0.089174 0.087591 0.062542 -0.058916 0.284321 0.314724 0.433161 -0.51773 0.408927 -0.330837 0.006252 0.030604 0.06945 -0.013619 0.24051 0.273291 0.075115 0.049999 -0.148287 -0.349559 -0.033415 0.056083 -0.028818 0.196113 0.088562 0.371403 -0.031843 0.3063 -0.0076 0.172684 0.152744 0.40118 0.069221 0.001395 -0.264323 0.036621 -0.394085 0.124906 0.052995 0.143888 -0.037321 -0.081721 0.459409 0.29329 -0.068571 -0.491066 -0.219161 0.049356 0.19599 0.123041 0.12256 0.169691 0.077345 -0.102456 0.546287 -0.120072 -0.106963 0.170292 0.066763 0.527696 0.065494 0.018719 -0.06923 0.35175 -0.171536 0.040659 -0.05051 0.04804 -0.151838 -0.08419 -0.322828 -0.016404 -0.121121 -0.206443 -0.183303 -0.064453 0.251483 0.019128 0.164423 0.051864 -0.166309 -0.050818 0.082845 -0.162129 -0.347007 -0.220782 0.246837 0.336882 0.070614 0.291181 -0.059511 -0.07995 -0.083566 -0.097813 0.006204 -0.201569 -0.554559 -0.137663 0.196071 0.191278 -0.156902 -0.282235 -0.230652 -0.068499 -0.188881 -0.021038 0.238417 0.043643 -0.325102 -0.857814 0.203762 -0.085175 -0.111499 0.028476 0.439954 0.056307 -0.023535 0.063641 -0.436848 0.082179 -0.00402 -0.393344 -0.161565 -0.081509 -0.10519 -0.115138 0.18387 -0.131882 0.134706 -0.243414 0.053862 0.458112 -0.01472 -0.171765 0.05799 0.379847 0.117337 0.324025 0.105688 -0.005125 -0.213978
a 0.239511 -0.295339 0.120109 0.014744 -0.104057 0.111383 0.058739 0.090868 -0.088819 -1.241791 0.431145 -0.084401 -0.069964 0.192747 0.23912 0.015571 0.196024 -1.198605 0.314649 0.050823 0.038077 0.043111 0.113004 0.001474 -0.082926 -0.019701 0.137931 -0.034457 -0.13194 -0.007422 0.149481 -0.200833 0.072769 -0.020156 -0.248316 0.088135 -0.02979 -0.04079 0.041187 0.106115 -0.128241 -0.094643 -0.161335 -0.002721 -0.036553 -0.063442 0.17074 -0.186282 -0.061724 0.017275 0.073111 -0.002059 0.057254 0.008533 0.055773 -0.05906 0.002972 -0.003172 -0.029416 0.118093 -0.021445 0.029621 -0.000706 -0.390807 -0.134993 0.123821 -0.018172 -0.104842 -0.014632 -0.213125 -0.061758 -0.02634 -0.194632 -0.007267 -0.114443 -0.120121 -0.095633 0.100557 -0.038329 -0.159781 -0.046666 -0.073141 0.124012 0.103214 -0.020974 0.269828 0.473659 -0.044711 -0.328875 -0.149681 0.103214 -0.100668 0.045805 0.132818 -0.055839 0.380665 -0.037974 -0.063306 -0.067696 0.082811 0.011133 -0.053629 0.112728 0.05159 -0.023224 -0.659504 -0.053679 -0.116766 -0.119919 -0.131409 -0.119619 0.261906 -0.184609 0.021818 -0.08081 0.041767 -0.030658 -0.019684 0.054728 -0.039275 -0.04741 -0.027913 0.049792 0.153049 0.019419 -0.030313 -0.069442 0.020271 0.103869 0.095858 -0.15062 -0.021753 0.040021 0.112317 -0.095501 -0.043955 0.004864 -0.024733 -0.099159 0.076169 0.692235 -0.027447 -0.277902 -0.053502 0.004754 0.093418 0.167489 -0.022914 -0.029563 0.153524 0.010616 -0.078236 0.005218 -0.03197 0.074912 0.138155 0.173349 -0.162492 0.026022 0.050757 -0.036941 0.051356 0.02658 0.248467 0.365974 0.133026 -0.15322 0.179241 -0.195744 -0.060098 -0.001222 0.068708 0.158278 0.130197 0.086985 -0.073392 -0.060263 -0.091282 -0.294754 -0.053142 -0.024886 -0.008817 0.085984 0.124057 0.200422 -0.020385 0.183411 -0.126009 -0.009935 0.004237 0.218037 0.007695 0.10349 -0.123983 0.020973 -0.122623 0.193771 0.139409 0.273766 -0.239925 -0.103463 0.186048 0.064427 -0.079949 -0.233138 -0.072505 -0.013742 0.118746 0.088672 0.035413 0.094169 0.194282 -0.031666 0.244131 -0.166685 -0.251817 0.139291 -0.011814 0.505585 -0.042959 0.025409 -0.071178 0.230144 -0.169666 -0.111185 -0.107342 -0.098723 -0.159785 -0.147267 -0.262725 0.11816 -0.03131 -0.146302 -0.074893 0.014009 0.102653 0.033637 0.109148 0.14234 -0.139734 -0.068638 0.029509 -0.117736 -0.103742 -0.066632 0.139915 0.089317 0.074686 0.307203 -0.038819 -0.037424 -0.051642 0.043162 0.073502 -0.062506 -0.482194 -0.035223 0.157748 -0.029515 -0.129656 -0.131873 -0.248096 -0.038632 -0.166077 -0.040216 0.305411 -0.003647 -0.040535 -0.463463 0.164262 -0.102317 -0.072307 0.14034 0.25524 0.044397 0.032757 0.020289 -0.035268 0.078579 -0.267539 -0.218333 -0.168344 -0.117947 -0.079679 0.090446 0.13411 -0.091566 0.142253 -0.196614 0.022338 0.365456 -0.108866 -0.051703 0.008345 0.075999 0.012304 0.05829 0.182586 -0.071808 -0.127836
 0.26507 0.073456 0.39724 0.40179 0.18702 0.24882 0.49818 0.43073 -0.23433 -0.43451 -0.011354 0.29249 -0.46527 0.27609 0.038166 -0.18742 -0.23981 -0.2578 0.026156 0.41841 -0.045367 0.31527 -0.25915 -0.006515 0.022664 -0.274 -0.23361 0.27987 0.13381 0.045764 0.27788 -0.14259 -0.28028 -0.1021 0.29084 -0.1221 -0.057291 -0.062849 0.11569 0.41212 0.055707 -0.5054 -0.53101 -0.40023 -0.20851 0.18099 0.11226 -0.46039 -0.050199 0.46935 -0.13996 0.49016 0.079553 0.083836 0.27045 0.17301 0.007673 -0.49856 0.71773 0.22281 0.34349 -0.31373 0.28684 -0.2033 -0.21992 0.15631 0.05218 -0.17945 -0.39496 0.28911 -0.40974 -0.38252 0.2614 0.38059 0.18574 -0.32514 0.20807 0.32469 0.098901 0.15586 -0.29746 0.10924 -0.22065 -0.10162 -0.31794 -0.23767 0.031892 -0.71597 0.10393 -0.11544 0.012852 -0.17492 0.55092 0.53383 0.16912 0.47912 -0.12278 -0.019742 -0.11033 0.000846 -0.25506 0.57859 -0.1038 -0.26567 0.1081 -0.53461 -0.49588 -0.46474 -0.40575 0.58162 0.36803 -0.36235 -0.65713 -0.059896 0.28557 0.73676 -0.39197 -0.091301 0.24277 -0.42056 0.000128 0.011147 0.32868 0.031905 -0.25479 0.020345 0.34459 0.15976 0.078507 -0.21887 0.6668 -0.22543 0.34875 0.080201 -0.10317 -0.59096 -0.24562 -0.23404 -0.035546 -0.21656 0.84314 -0.1616 0.25759 -0.4675 -0.13502 0.17231 -0.23204 0.11817 -0.07465 0.19456 -0.051498 -0.44411 -0.4848 0.66291 -0.23156 -0.002394 0.092831 -0.50632 0.47103 -0.009566 -0.004127 0.16531 0.11553 0.53354 0.35591 0.51042 -0.17045 -0.82757 0.298 -0.23556 -0.54511 0.46671 -0.44768 0.24966 0.10541 0.17207 -0.4566 -0.062992 -0.1402 -0.18692 -0.40827 -0.35373 0.39526 -0.4967 0.18682 0.31576 0.017961 -0.34206 0.061352 0.40087 -0.296 -0.10018 0.25581 0.000589 0.27219 -0.39033 0.35065 0.319 -0.15605 -0.30756 0.53746 -0.025199 0.36835 -0.032115 -0.014233 0.050699 0.24078 -0.10232 -0.13208 -0.30829 0.028871 0.31282 -0.080188 0.53075 0.35751 0.23784 0.49973 0.12443 0.34247 0.10387 0.36091 0.14355 0.32617 -0.074299 -0.28258 -0.096039 -0.10511 -0.17093 -0.2282 0.077268 -0.43826 -0.25137 -0.6732 0.23251 0.19278 0.1794 -0.070087 -0.12395 -0.46281 0.29386 -0.059272 -0.037597 0.23812 0.048082 0.25086 0.049547 0.15747 0.25686 0.03587 -0.13217 -0.17543 0.063166 -0.22088 -0.57333 -0.71175 -0.2464 -0.24956 -0.2243 -0.25837 -0.3681 0.24602 0.20401 -0.15449 -0.58729 -0.33249 -0.09925 -0.32053 0.012727 0.20686 0.079335 -0.15603 -0.25985 -0.33643 0.11055 -0.89366 0.089063 0.095214 0.030266 0.51465 0.42442 0.15578 0.057616 -1.1587 -0.55406 0.17836 -0.62186 -0.012929 -0.18528 -0.32504 0.2981 0.49217 0.37752 -0.045371 -0.38955 0.19054 -0.028323 -0.052422 0.010862 0.24313 -0.48569
x 0.246788 -0.299682 0.091904 0.024578 -0.117019 0.104915 0.059008 0.102943 -0.059485 -1.393993 0.424086 -0.109043 -0.071873 0.192825 0.277025 0.050819 0.201811 -1.098478 0.28551 0.030939 -0.040975 0.053385 0.10709 0.015219 -0.108301 -0.039579 0.130105 0.000441 -0.116815 0.01236 0.14281 -0.199864 0.061882 0.01958 -0.240987 0.069515 -0.01229 -0.08571 0.04409 0.147618 -0.085863 -0.110641 -0.160181 0.018944 -0.096518 -0.051966 0.197627 -0.180138 -0.096938 0.038879 0.058434 0.016604 0.065205 -0.030809 0.049498 -0.044151 -0.018623 -0.03079 -0.047676 0.10579 -0.053114 0.015756 0.033404 -0.410576 -0.122082 0.148726 -0.022422 -0.109809 -0.04053 -0.246192 -0.035272 -0.024217 -0.185751 0.029271 -0.061639 -0.096066 -0.120692 0.071797 -0.052317 -0.109872 -0.049203 -0.097402 0.070721 0.119802 -0.021272 0.277397 0.534638 -0.042177 -0.330622 -0.146703 0.078003 -0.063415 0.089811 0.090918 -0.087891 0.39938 -0.091053 -0.04282 -0.070259 0.089169 -0.008993 -0.074525 0.130798 0.072887 0.007155 -0.684886 0.00735 -0.086931 -0.136321 -0.078631 -0.135878 0.238234 -0.148229 0.02685 -0.060793 0.094476 -0.012562 -0.01337 0.046775 -0.058129 -0.073732 -0.035606 0.061605 0.165585 -0.03618 -0.025197 -0.087984 -0.005896 0.120415 0.057513 -0.134862 0.045481 0.007506 0.114392 -0.072869 -0.036971 0.013658 -0.031421 -0.108921 0.010676 0.710948 -0.058786 -0.239372 -0.041188 0.02487 0.073153 0.174552 -0.033495 -0.030449 0.140991 0.032634 -0.044217 -0.012965 -0.035671 0.10366 0.12084 0.155788 -0.149487 0.06953 0.06824 -0.068982 0.061546 -0.031263 0.243155 0.339179 0.158483 -0.127768 0.122454 -0.215963 -0.134896 -0.005774 0.078781 0.164817 0.148809 0.113182 -0.077823 -0.069754 -0.095504 -0.307068 -0.053757 -0.044802 -0.007426 0.084048 0.109516 0.221878 -0.04106 0.162106 -0.121969 -0.047429 0.026141 0.223597 0.026327 0.125863 -0.105275 0.076104 -0.116881 0.184694 0.147163 0.309286 -0.265347 -0.029772 0.098046 0.054594 -0.075882 -0.274799 -0.058157 -0.003802 0.099151 0.073096 0.033106 0.069348 0.162137 0.008992 0.202433 -0.180503 -0.265186 0.153388 -0.020374 0.494944 -0.023249 0.043948 -0.100835 0.185242 -0.149332 -0.112469 -0.115489 -0.050705 -0.191611 -0.104655 -0.301291 0.132623 -0.082327 -0.115424 -0.079484 0.066497 0.09213 0.052586 0.155327 0.148129 -0.120867 -0.030801 -0.007073 -0.125184 -0.108659 -0.074177 0.121567 0.118589 0.05718 0.292398 -0.030587 -0.02286 -0.019389 0.036419 0.023344 -0.123577 -0.500576 -0.040426 0.146711 -0.042159 -0.127965 -0.109808 -0.236756 -0.02847 -0.23943 -0.020282 0.311455 -0.032136 -0.00575 -0.382238 0.15407 -0.076935 -0.064573 0.122577 0.265782 0.053598 0.019836 -0.012828 0.006429 0.038875 -0.289404 -0.221523 -0.139524 -0.061804 -0.094663 0.141448 0.126893 -0.138166 0.158557 -0.160959 0.050683 0.375015 -0.093067 -0.042821 -0.005338 -0.021745 0.006067 0.065524 0.153139 -0.092827 -0.131775
% -0.060518 0.035585 0.041855 -0.085362 -0.204993 -0.12296 0.063725 -0.071105 -0.087004 -1.233448 0.135405 0.099879 -0.100707 -0.121887 0.286616 0.166322 0.265479 -0.994154 0.152385 -0.114002 0.150034 0.218188 0.37508 -0.288538 -0.080807 -0.198757 -0.020277 0.199945 -0.019165 0.300335 0.0946 -0.453875 0.391887 0.155978 -0.19798 0.02714 -0.195527 -0.004473 0.080964 0.320991 0.077149 -0.239255 0.152506 -0.077737 0.017769 -0.22471 0.277564 0.040081 -0.185977 0.254132 -0.044056 -0.010802 0.102899 -0.321986 -0.07595 -0.193154 0.139242 -0.011121 0.064944 0.017266 -0.149913 0.006402 -0.076879 -0.23173 -0.056695 0.32518 -0.043419 0.11025 -0.043028 0.182443 0.024622 -0.190538 0.254355 -0.293307 -0.060151 0.129998 -0.073093 0.253794 0.256081 0.014453 0.081514 0.050628 -0.112816 -0.081269 0.029177 0.023449 0.29441 -0.030592 -0.429622 0.042872 0.151257 0.178931 0.083762 0.225374 0.013607 0.629559 -0.235705 -0.096619 0.134416 -0.009107 0.095215 0.224542 -0.090784 0.177811 0.01484 -0.53872 0.006854 -0.20104 -0.243269 0.138885 -0.030924 0.087713 -0.05897 -0.065308 -0.132735 0.331111 -0.209954 0.060651 -0.097472 0.162927 0.106314 -0.147071 0.150905 0.134466 -0.018838 -0.264787 -0.147171 -0.040043 0.236107 -0.220555 -0.356057 -0.177297 -0.149916 -0.058364 -0.137468 0.094949 -0.156527 -0.086929 -0.222572 0.044783 0.491762 0.116278 -0.296813 -0.056009 0.057096 0.083677 0.199084 0.005431 0.045115 0.141128 -0.011262 -0.100041 -0.023345 -0.414259 -0.033692 -0.059355 0.382018 -0.121134 0.227557 -0.005571 0.260733 0.112745 -0.240207 0.011284 0.087937 0.143948 -0.101293 0.068523 -0.258453 -0.212899 0.211966 0.073277 0.354248 0.037902 0.01363 -0.183921 -0.056142 -0.315727 -0.525066 0.062294 -0.060792 0.083657 0.143591 -0.052744 0.301419 -0.110781 0.165269 -0.19584 0.108218 0.185756 0.164781 -0.23523 0.122065 0.023671 -0.077641 -0.108514 0.066662 0.170982 0.149964 -0.528373 -0.131465 0.209121 0.129974 0.074571 -0.21962 0.171982 0.177209 -0.173778 0.023137 -0.122748 0.055673 0.189337 0.096629 0.163921 0.173226 -0.11858 0.108055 0.124154 0.451424 0.075122 0.098552 -0.013537 0.095571 -0.079138 -0.384028 -0.49494 -0.145391 -0.357131 -0.118895 -0.357057 0.169349 -0.247921 0.34312 -0.183033 -8.6e-05 0.125248 -0.181665 0.006921 0.12564 -0.17032 -0.058487 -0.150912 0.057152 -0.259108 0.000566 -0.237541 0.182616 -0.025008 0.461742 -0.001895 -0.017443 -0.066064 0.164985 0.227242 -0.033501 -0.361858 -0.108291 -0.141435 -0.010851 -0.258562 0.025982 -0.185416 -0.030453 -0.168652 0.311628 0.127335 -0.136197 -0.309644 -0.188274 -0.256787 -0.248995 0.03742 -0.027123 0.308675 0.095879 -0.006482 0.206043 -0.147015 -0.073247 -0.287346 -0.261728 -0.19528 -0.100424 -0.058246 0.038825 0.014836 -0.293325 0.134415 -0.068739 0.545079 0.371003 -0.095442 0.154974 0.065242 -0.069891 -0.23722 -0.163113 0.159575 -0.074613 -0.073947
æ 0.31728 -0.339954 0.200426 -0.069458 -0.152717 0.08306 0.393318 0.144273 -0.005414 -1.395185 0.32182 0.027309 0.007141 0.26975 0.462742 0.19714 0.123872 -1.179036 0.463584 0.151121 0.12934 0.090635 0.103609 -0.03448 -0.110417 -0.073794 0.087364 -0.137667 -0.054325 0.044542 0.091107 -0.224851 -0.153688 0.136903 -0.142795 0.153673 -0.063868 -0.133472 -0.155756 0.282476 -0.297025 -0.278572 -0.344677 0.056969 -0.127812 -0.162102 0.158492 -0.253711 -0.126393 -0.013813 0.14646 -0.024987 0.040606 -0.045544 0.106633 -0.202578 0.046403 -0.18594 -0.134668 0.350462 0.014896 -0.007146 0.219226 -0.44199 -0.281398 0.125191 0.074173 -0.177093 -0.026009 -0.257226 -0.148351 -0.116288 -0.142788 -0.009026 -0.157617 -0.064619 -0.044176 0.101517 -0.109612 -0.281093 0.173906 -0.149363 0.227463 0.145331 0.107039 0.227399 0.534166 -0.03786 -0.421265 0.02837 0.157772 -0.217163 0.116037 0.331086 -0.127982 0.39298 -0.116645 -0.026549 0.076617 0.138376 -0.09591 -0.168126 -0.030922 -0.038049 -0.010188 -0.654571 -0.085426 -0.286492 -0.165184 -0.16105 -0.081156 0.223739 -0.305508 0.051004 -0.123077 -0.028545 -0.201187 -0.078138 -0.052671 0.02185 0.109069 -0.04613 0.133665 0.272803 0.022017 0.000246 -0.014863 -0.11861 0.245627 0.122627 -0.27987 -0.081951 -0.123235 0.126037 -0.131354 -0.051489 -0.020468 0.114569 -0.303471 -0.003087 0.750427 -0.210647 -0.349776 0.089552 -0.05821 0.114957 0.208641 0.091163 0.095663 0.170441 -0.077578 -0.228457 -0.075257 -0.213228 0.21208 0.296455 0.029305 -0.263081 0.270326 0.098566 0.227467 -0.078261 0.273282 0.280636 0.227049 0.213575 -0.292549 0.149743 -0.484758 -0.054924 -0.1542 -0.053461 0.132181 0.171237 0.14936 -0.005577 -0.030896 -0.142935 -0.471072 -0.132754 0.076212 -0.076559 0.029304 0.218686 0.059637 0.102684 0.210665 -0.132567 0.140363 -0.145584 0.219841 0.021273 0.313522 -0.178967 0.090443 -0.089338 0.10801 -0.129161 0.296511 -0.304338 -0.073828 0.277031 0.193696 0.05492 -0.418444 -0.058057 0.038769 0.123025 0.127629 0.030681 0.272754 0.198811 -0.026708 0.279988 0.002599 -0.256061 0.144806 -0.088896 0.635263 -0.035968 0.028751 -0.076501 0.233637 -0.447697 -0.300015 -0.008682 -0.097911 -0.350662 -0.212347 -0.338717 0.26938 0.0765 -0.093842 -0.205816 0.058379 0.167698 -0.096606 0.144278 0.162496 -0.086618 -0.015534 0.114324 -0.214184 -0.077185 -0.04918 0.262117 0.157292 0.07863 0.412233 -0.020802 -0.03517 -0.140492 0.080799 0.068344 0.082552 -0.510379 -0.023035 0.326951 0.042746 -0.374346 -0.018926 -0.539357 0.2136 -0.206273 -0.160199 0.25493 8.2e-05 -0.140752 -0.767 0.121162 0.021245 -0.083059 0.16056 0.561875 0.045472 0.041501 0.101074 -0.09187 0.164552 -0.283214 -0.079043 -0.155145 -0.050888 -0.221371 0.070893 0.029314 -0.146904 0.189478 -0.124964 0.118476 0.385071 -0.013816 -0.067129 -0.01483 0.280037 -0.008003 0.35738 0.213713 -0.166037 -0.336781
ø 0.349509 -0.42752 0.025443 -0.076186 -0.216563 0.078125 0.363551 0.004003 0.115107 -1.423354 0.226087 -0.073776 -0.054502 0.307507 0.367023 0.176366 0.206228 -1.272196 0.492834 0.131123 0.166307 0.140654 0.132708 -0.067298 -0.258151 0.016558 0.053737 -0.138061 -0.132513 0.034431 0.025733 -0.233008 -0.152001 0.091793 -0.093703 0.051207 -0.082681 -0.070206 -0.015652 0.269188 -0.178616 -0.295849 -0.284098 0.128267 -0.118597 -0.105776 0.182557 -0.427131 -0.101738 -0.020781 0.15294 0.040853 0.081305 0.005358 0.059801 -0.252868 0.031602 -0.246125 -0.088492 0.209451 -0.058055 0.082993 0.325418 -0.421792 -0.240034 0.042775 0.026398 -0.025052 -0.008354 -0.419933 -0.20783 0.07832 -0.051904 -0.024343 -0.133804 0.028228 0.091898 0.18136 -0.09491 -0.402429 0.235629 -0.365146 0.311837 0.189557 0.141541 0.350027 0.45668 -0.091807 -0.370518 0.129108 0.080268 -0.196224 0.176892 0.372293 -0.086535 0.299622 -0.093911 0.057072 -0.031963 0.225339 -0.031918 -0.270393 -0.086798 -0.06898 -0.092239 -0.494275 0.020939 -0.384865 -0.172568 -0.25072 -0.12941 0.183105 -0.38101 0.037511 -0.249817 -0.135573 -0.243174 -0.012775 0.039305 0.084019 0.121004 0.025748 0.163442 0.036138 0.320493 -0.072106 0.076066 -0.104893 0.050094 0.021403 -0.300133 0.069267 -0.142998 0.087107 -0.240019 0.112595 -0.127945 0.014551 -0.162697 0.077734 0.758792 -0.073926 -0.336267 0.042949 -0.163426 0.166292 0.12533 0.06797 0.185086 0.064893 -0.201054 -0.168065 -0.003578 -0.236388 0.356483 0.302834 -0.057551 -0.300349 0.258473 0.014724 0.214921 -0.015036 0.182154 0.333391 0.211693 0.228695 -0.522479 0.265696 -0.666041 0.077018 -0.112147 -0.03608 0.00064 0.176615 0.130946 -0.013463 -0.045105 -0.176329 -0.414761 -0.082321 -0.014068 0.061921 0.048583 0.173458 0.156925 0.113826 0.350728 -0.07858 0.093596 -0.027912 0.197156 0.013878 0.404806 -0.237304 0.042701 0.007417 0.078161 -0.022882 0.328191 -0.327901 -0.109392 0.197061 0.178416 0.051186 -0.37934 -0.103505 -0.05667 0.305775 0.133485 -0.001938 0.216349 0.17851 -0.057665 0.356662 0.012346 -0.186149 0.103303 -0.065639 0.618145 0.085909 0.126952 -0.166529 0.301975 -0.555002 -0.354048 -0.121342 0.165748 -0.421456 -0.273288 -0.227842 0.22049 0.190376 -0.035797 -0.320941 0.105015 0.117887 -0.149609 0.046158 0.140119 -0.17115 -0.144674 0.150276 -0.286032 -0.172298 -0.072975 0.208933 0.149055 0.109467 0.404343 -0.103605 -0.092684 -0.114302 0.355339 -0.138771 0.0547 -0.548375 -0.160156 0.226651 -0.009833 -0.425768 -0.071417 -0.485565 0.328526 -0.060033 -0.280924 0.18448 0.025567 -0.243427 -0.868393 0.062612 -0.040266 -0.174286 0.253185 0.410848 0.066691 0.007492 0.248707 -0.005881 0.025199 -0.292039 -0.129134 -0.073413 -0.149203 -0.180814 0.117472 -0.005178 -0.073623 0.264492 -0.14943 0.172985 0.40415 0.076613 -0.033772 0.018659 0.254901 0.033263 0.344581 0.075573 -0.133745 -0.199963
$ 0.144288 -0.460809 0.205078 0.061188 -0.057054 -0.048921 -0.164738 0.132241 0.139505 -1.45673 0.396798 0.277961 -0.174046 0.278037 0.336294 0.098585 0.17377 -0.848967 0.396099 -0.202508 -0.160806 0.241847 -0.138796 0.136647 -0.041472 -0.287252 0.121254 -0.026738 -0.162418 0.044436 0.091555 -0.136861 0.178595 -0.000123 -0.14282 0.219414 0.032894 -0.059294 0.282107 0.438588 0.097691 -0.132703 0.079615 0.09284 -0.133715 -0.028065 0.219812 -0.021644 -0.15124 -0.064424 0.188657 -0.140944 -0.015666 0.301707 0.176221 -0.228171 0.117744 0.024572 0.151532 0.130388 -0.093589 -0.063591 -0.213963 -0.664897 -0.051173 0.145696 0.088085 -0.040286 -0.174931 -0.345196 -0.053173 0.237955 -0.185273 0.104786 -0.086054 0.033682 -0.185401 0.04029 0.070202 -0.206912 -0.165523 -0.206874 0.0873 0.08216 0.093227 0.381933 0.558342 0.050014 -0.05609 -0.218249 0.049009 -0.117169 0.154203 -0.020463 -0.377088 0.368341 -0.222472 0.046694 0.031444 0.174862 0.026853 -0.358615 0.185124 0.082293 -0.028626 -0.352496 -0.081429 -0.210077 -0.258144 0.038838 0.021895 0.040279 0.092572 0.057498 -0.06644 0.113818 0.137411 -0.168118 0.142237 -0.166985 -0.107921 -0.150895 -0.32587 0.143393 -0.036771 -0.098002 -0.147006 0.139118 0.002724 0.017834 -0.121276 0.114327 0.063454 0.176303 -0.14784 0.125102 0.017875 -0.078547 -0.282594 -0.024056 0.948385 0.13268 -0.35872 0.016632 0.133687 0.139229 0.111057 -0.052825 -0.062598 -0.00731 0.224909 -0.054256 0.04304 0.100056 0.307388 0.092885 0.172201 -0.12571 0.2882 0.210417 -0.116812 0.160809 -0.213403 0.045633 0.168011 0.36765 -0.052158 0.185154 -0.33939 -0.157674 0.013663 0.047496 0.012714 0.128385 0.269976 -0.180241 -0.049025 -0.138182 -0.172213 -0.166881 0.106579 0.246113 0.071687 0.111131 -0.029168 0.025904 0.010511 -0.236868 -0.165854 0.257773 0.081909 -0.107561 -0.071208 -0.010327 0.184775 -0.385112 0.338346 -0.073193 0.231225 -0.457138 0.226866 0.191209 -0.035197 -0.13803 -0.401169 -0.16485 0.115937 -0.025727 0.467579 -0.014991 0.273331 0.194617 -0.03361 0.199445 -0.090705 -0.075828 0.147352 -0.171102 0.324208 0.122602 0.07258 -0.136654 0.24861 -0.274774 -0.074807 -0.08476 -0.290013 -0.057169 -0.216254 -0.074141 0.219929 0.048878 -0.044135 -0.267522 0.113642 0.354883 -0.043416 0.089142 0.119464 -0.209226 -0.145259 0.023563 0.049457 0.038882 0.309804 0.327336 -0.017127 0.024575 0.432556 -0.200953 0.133605 -0.047093 0.120373 0.301827 0.004964 -0.355299 -0.038493 -0.110103 -0.152474 -0.003245 -0.13803 0.003923 -0.027237 -0.332633 0.071391 0.147288 0.120792 -0.036141 -0.308107 -0.10431 -0.074165 -0.136929 0.090265 0.487684 0.125397 -0.086254 0.010741 -0.158267 -0.304963 -0.147217 -0.214635 -0.211521 -0.245484 0.201605 -0.062608 0.079798 -0.252412 0.175501 -0.393586 0.19504 0.478517 -0.15022 -0.021751 -0.006589 -0.116282 0.031644 -0.049135 0.178179 -0.015788 -0.398401
